Sub covid_calculator_day1()
    
    Sheet2.Range("B4:F4").ClearContents
    Sheet2.Range("B4:F4").Interior.ColorIndex = 2
  

    Dim inputVector(6), score() As Double
    Dim class0Rng, class1Rng, class2Rng As Range
    Dim age, worstCondition, ldh As Range
    Dim refUpper, ldhRatio, platelet, albumin As Range
    Dim globulin, agRatio, crp, neutrophil, lymphocyte, nlRatio As Range
    Dim a, c As String
    Dim b, d, e, f, g, h, i, j, k, l, m As Double
    
    With Worksheets("Sheet1")
        Set class0Rng = .Range("B4")
        Set class1Rng = .Range("C4")
        Set class2Rng = .Range("E4")
        Set age = .Range("B7")
        Set worstCondition = .Range("B8:B8")
        Set ldh = .Range("B9")
        Set refUpper = .Range("B10")
        Set ldhRatio = .Range("F9")
        Set platelet = .Range("B11")
        Set albumin = .Range("B12:B12")
        Set globulin = .Range("B13")
        Set agRatio = .Range("F12")
        Set crp = .Range("B14")
        Set neutrophil = .Range("B15")
        Set lymphocyte = .Range("B16")
        Set nlRatio = .Range("F15")
    End With

    
    a = age.Value 'age_group
    c = worstCondition.Value 'worst_condition
    d = ldh.Value 'LDH
    e = refUpper.Value 'ref_upper
    b = ldhRatio.MergeArea.Cells(1, 1).Value 'LDH / ref_upper ratio
    f = platelet.Value 'platelet
    g = albumin.Value 'albumin
    h = globulin.Value 'globulin
    i = agRatio.MergeArea.Cells(1, 1).Value 'A/G ratio
    j = crp.Value 'CRP
    k = neutrophil.Value 'neutrophil
    l = lymphocyte.Value 'lymphocyte
    m = nlRatio.MergeArea.Cells(1, 1).Value 'N/L ratio
    
    'age_group
    If a = "0 - 9" Then
       inputVector(5) = 1
    ElseIf a = "10 - 19" Then
       inputVector(5) = 2
    ElseIf a = "20 - 29" Then
       inputVector(5) = 3
    ElseIf a = "30 - 39" Then
       inputVector(5) = 4
    ElseIf a = "40 - 49" Then
       inputVector(5) = 5
    ElseIf a = "50 - 59" Then
       inputVector(5) = 6
    ElseIf a = "60 - 69" Then
       inputVector(5) = 7
    ElseIf a = "70 - 79" Then
       inputVector(5) = 8
    ElseIf a = "80 - 89" Then
       inputVector(5) = 9
    ElseIf a = "90 +" Then
       inputVector(5) = 10
    Else
       inputVector(5) = ""
    End If
       
    'dyspnea
    'If b = "No" Then
    '   input_vector(1) = 1
    'ElseIf b = "Yes" Then
    '   input_vector(1) = 2
    'Else
    '   input_vector(1) = " "
    'End If
    
    'worst_condition
    If c = "Critical" Then
       inputVector(6) = 4
    ElseIf c = "Serious" Then
       inputVector(6) = 3
    ElseIf c = "Stable" Then
       inputVector(6) = 2
    ElseIf c = "Satisfactory" Then
       inputVector(6) = 1
    Else
       inputVector(6) = 0
    End If
    
    'LDH
    If ldh = "" And refUpper = "" And ldhRatio = "" Then
       inputVector(3) = ""
    ElseIf ldh <> "" And refUpper = "" And ldhRatio = "" Then
       MsgBox "Please input LDH - Upper Reference"
    ElseIf ldh <> "" And refUpper <> "" And ldhRatio = "" Then
       inputVector(3) = d / e
    ElseIf ldh = "" And refUpper = "" And ldhRatio <> "" Then
       inputVector(3) = b
    ElseIf ldh = "" And refUpper <> "" And ldhRatio <> "" Then
       inputVector(3) = b
    ElseIf ldh <> "" And refUpper = "" And ldhRatio <> "" Then
       MsgBox "Please fill in either 1) LDH & LDH - Upper Reference OR 2) Ratio (LDH / LDH - Upper Reference)"
    ElseIf ldh <> "" And refUpper <> "" And ldhRatio <> "" Then
       MsgBox "Please fill in either 1) LDH & LDH - Upper Reference OR 2) Ratio (LDH / LDH - Upper Reference)"
    Else
       inputVector(3) = ""
    End If

    'Platelet
    If f = "" Then
       inputVector(4) = ""
    Else
       inputVector(4) = f
    End If
    
    'Albumin & Globulin
    If albumin = "" And globulin = "" And agRatio = "" Then
       inputVector(0) = ""
    ElseIf albumin <> "" And globulin <> "" And agRatio = "" Then
       inputVector(0) = g / h
    ElseIf albumin = "" And globulin = "" And agRatio <> "" Then
       inputVector(0) = i
    Else
       MsgBox "Please fill in either 1) Albumin & Globulin OR 2) Ratio (Albumin / Globulin)"
    End If
    
    'CRP
    If crp = "" Then
       inputVector(2) = ""
    Else
       inputVector(2) = j
    End If
        
    'Neutrophil & Lymphocyte
    If neutrophil = "" And lymphocyte = "" And nlRatio = "" Then
       inputVector(1) = ""
    ElseIf neutrophil <> "" And lymphocyte <> "" And nlRatio = "" Then
       inputVector(1) = k / l
    ElseIf neutrophil = "" And lymphocyte = "" And nlRatio <> "" Then
       inputVector(1) = m
    Else
       MsgBox "Please fill in either 1) Neutrophil & Lymphocyte OR 2) Ratio (Neutrophil / Lymphocyte)"
    End If
    
    
    'Python_to_VBA Codes
    '
    '
   Dim var0 As Double
    If (inputVector(5)) >= (5#) Then
        If (inputVector(3)) >= (1.1078097) Then
            If (inputVector(3)) < (1.4578276) Then
                If (inputVector(1)) >= (2.8193512) Then
                    var0 = 0.124492481
                Else
                    var0 = 0.00348483934
                End If
            Else
                If (inputVector(4)) < (1.1804054) Then
                    var0 = 0.146946758
                Else
                    var0 = -0.0743672475
                End If
            End If
        Else
            If (inputVector(6)) >= (2#) Then
                If (inputVector(5)) >= (7#) Then
                    var0 = 0.118766047
                Else
                    var0 = 0
                End If
            Else
                If (inputVector(4)) < (0.4284558) Then
                    var0 = 0.0403749235
                Else
                    var0 = -0.0749928728
                End If
            End If
        End If
    Else
        If (inputVector(3)) >= (2.0966303) Then
            var0 = 0.149940029
        Else
            If (inputVector(4)) < (0.2989704) Then
                If (inputVector(4)) < (0.29007715) Then
                    var0 = -0.074904494
                Else
                    var0 = 0.149880096
                End If
            Else
                var0 = -0.0749980435
            End If
        End If
    End If
    Dim var1 As Double
    If (inputVector(2)) >= (19.747501) Then
        If (inputVector(3)) >= (1.1021705) Then
            If (inputVector(1)) < (1.449445) Then
                var1 = -0.0751153007
            Else
                If (inputVector(5)) >= (4#) Then
                    var1 = 0.123038009
                Else
                    var1 = -0.0722545162
                End If
            End If
        Else
            If (inputVector(3)) < (0.72978115) Then
                If (inputVector(1)) < (3.3255877) Then
                    var1 = -0.0724672601
                Else
                    var1 = 0.145176798
                End If
            Else
                var1 = -0.0747392699
            End If
        End If
    Else
        If (inputVector(5)) >= (8#) Then
            If (inputVector(0)) >= (0.9829967) Then
                If (inputVector(3)) < (0.7796364) Then
                    var1 = -0.0732851848
                Else
                    var1 = 0.140232906
                End If
            Else
                var1 = -0.075968124
            End If
        Else
            If (inputVector(4)) < (0.34991956) Then
                If (inputVector(3)) < (0.9389297) Then
                    var1 = -0.0742042884
                Else
                    var1 = 0.0980465934
                End If
            Else
                If (inputVector(3)) < (0.96423024) Then
                    var1 = -0.0726108775
                Else
                    var1 = -0.0395922624
                End If
            End If
        End If
    End If
    Dim var2 As Double
    If (inputVector(3)) < (0.9410428) Then
        If (inputVector(5)) >= (8#) Then
            If (inputVector(0)) < (1.5563271) Then
                var2 = -0.0708775371
            Else
                If (inputVector(3)) < (0.7577431) Then
                    var2 = 0.147339538
                Else
                    var2 = 0.127068281
                End If
            End If
        Else
            If (inputVector(5)) >= (5#) Then
                If (inputVector(6)) >= (2#) Then
                    var2 = -0.00526289688
                Else
                    var2 = -0.0711582452
                End If
            Else
                If (inputVector(6)) >= (2#) Then
                    var2 = -0.0688092485
                Else
                    var2 = -0.0704018623
                End If
            End If
        End If
    Else
        If (inputVector(5)) >= (4#) Then
            If (inputVector(3)) >= (1.4608275) Then
                If (inputVector(4)) < (1.1804054) Then
                    var2 = 0.113553084
                Else
                    var2 = -0.0750575736
                End If
            Else
                If (inputVector(5)) >= (8#) Then
                    var2 = 0.117517866
                Else
                    var2 = 0.0428424962
                End If
            End If
        Else
            var2 = -0.0710047334
        End If
    End If
    Dim var3 As Double
    If (inputVector(3)) < (0.9410428) Then
        If (inputVector(5)) >= (5#) Then
            If (inputVector(3)) < (0.72576535) Then
                var3 = -0.0689969659
            Else
                If (inputVector(4)) < (0.6317841) Then
                    var3 = 0.0520843342
                Else
                    var3 = -0.0683171898
                End If
            End If
        Else
            var3 = -0.0678480715
        End If
    Else
        If (inputVector(2)) < (3.125) Then
            If (inputVector(5)) >= (7#) Then
                var3 = -0.0748916194
            Else
                var3 = -0.0697544888
            End If
        Else
            If (inputVector(4)) >= (0.28869048) Then
                If (inputVector(3)) < (1.4646456) Then
                    var3 = 0.0699245855
                Else
                    var3 = 0.102952898
                End If
            Else
                If (inputVector(4)) < (0.5642867) Then
                    var3 = -0.0743559822
                Else
                    var3 = -0.0693299472
                End If
            End If
        End If
    End If
    Dim var4 As Double
    If (inputVector(5)) >= (5#) Then
        If (inputVector(3)) < (0.72548753) Then
            var4 = -0.0672773719
        Else
            If (inputVector(2)) < (2.05) Then
                If (inputVector(3)) >= (1.0307744) Then
                    var4 = -0.0738964751
                Else
                    var4 = -0.0684840754
                End If
            Else
                If (inputVector(6)) >= (2#) Then
                    var4 = 0.090044409
                Else
                    var4 = 0.0446444303
                End If
            End If
        End If
    Else
        If (inputVector(3)) >= (2.2959006) Then
            If (inputVector(2)) < (171.91) Then
                var4 = 0.133494064
            Else
                var4 = 0.101778463
            End If
        Else
            If (inputVector(3)) < (0.960127) Then
                var4 = -0.0660069436
            Else
                If (inputVector(4)) < (0.43454376) Then
                    var4 = -0.07599473
                Else
                    var4 = -0.0688140914
                End If
            End If
        End If
    End If
    Dim var5 As Double
    If (inputVector(2)) >= (13.389999) Then
        If (inputVector(1)) < (1.548742) Then
            If (inputVector(5)) >= (4#) Then
                var5 = -0.0752098486
            Else
                var5 = -0.0648866296
            End If
        Else
            If (inputVector(6)) >= (2#) Then
                If (inputVector(4)) < (0.3219783) Then
                    var5 = -0.0886592194
                Else
                    var5 = 0.0878093839
                End If
            Else
                If (inputVector(4)) < (0.51609784) Then
                    var5 = 0.0831788555
                Else
                    var5 = -0.076849483
                End If
            End If
        End If
    Else
        If (inputVector(3)) < (0.83190906) Then
            If (inputVector(5)) >= (5#) Then
                If (inputVector(3)) < (0.7261364) Then
                    var5 = -0.0653732419
                Else
                    var5 = -0.0688376054
                End If
            Else
                var5 = -0.0643394664
            End If
        Else
            If (inputVector(5)) >= (5#) Then
                If (inputVector(4)) < (0.5077336) Then
                    var5 = 0.0837456807
                Else
                    var5 = -0.0296925548
                End If
            Else
                If (inputVector(4)) < (0.29702383) Then
                    var5 = 0.0755655318
                Else
                    var5 = -0.0660760775
                End If
            End If
        End If
    End If
    Dim var6 As Double
    If (inputVector(2)) >= (23.66) Then
        If (inputVector(1)) >= (1.882353) Then
            If (inputVector(5)) >= (9#) Then
                var6 = -0.0997340307
            Else
                If (inputVector(3)) >= (0.94741505) Then
                    var6 = 0.0811666623
                Else
                    var6 = -0.0774241537
                End If
            End If
        Else
            If (inputVector(4)) < (0.41710705) Then
                var6 = -0.0898630023
            Else
                If (inputVector(2)) < (48.42) Then
                    var6 = -0.0815439075
                Else
                    var6 = -0.0744002983
                End If
            End If
        End If
    Else
        If (inputVector(4)) < (0.42592674) Then
            If (inputVector(2)) < (2.1999998) Then
                If (inputVector(3)) < (0.956641) Then
                    var6 = -0.0644266158
                Else
                    var6 = -0.0739335418
                End If
            Else
                If (inputVector(3)) < (0.82963634) Then
                    var6 = -0.066199474
                Else
                    var6 = 0.0824736357
                End If
            End If
        Else
            If (inputVector(5)) >= (8#) Then
                If (inputVector(2)) < (3.5349998) Then
                    var6 = -0.0716690496
                Else
                    var6 = 0.11272347
                End If
            Else
                If (inputVector(5)) >= (7#) Then
                    var6 = -0.00454996573
                Else
                    var6 = -0.0647962466
                End If
            End If
        End If
    End If
    Dim var7 As Double
    If (inputVector(5)) >= (5#) Then
        If (inputVector(2)) < (23.66) Then
            If (inputVector(0)) >= (0.8174047) Then
                If (inputVector(0)) < (1.6499305) Then
                    var7 = -0.0481599383
                Else
                    var7 = 0.0514138229
                End If
            Else
                If (inputVector(5)) >= (7#) Then
                    var7 = 0.0949016288
                Else
                    var7 = -0.0678257793
                End If
            End If
        Else
            If (inputVector(0)) < (1.4593253) Then
                If (inputVector(2)) < (70.08) Then
                    var7 = 0.0543138571
                Else
                    var7 = 0.0785111859
                End If
            Else
                If (inputVector(2)) < (32.02) Then
                    var7 = -0.113531068
                Else
                    var7 = -0.0743063092
                End If
            End If
        End If
    Else
        If (inputVector(2)) >= (91.305) Then
            If (inputVector(0)) < (1.2032869) Then
                var7 = 0.115482666
            Else
                If (inputVector(0)) < (1.2669206) Then
                    var7 = -0.09625227
                Else
                    var7 = -0.0711043328
                End If
            End If
        Else
            If (inputVector(2)) >= (5.625) Then
                If (inputVector(2)) < (20.755001) Then
                    var7 = -0.0641494319
                Else
                    var7 = -0.0683582574
                End If
            Else
                var7 = -0.0619886704
            End If
        End If
    End If
    Dim var8 As Double
    If (inputVector(2)) >= (20.06) Then
        If (inputVector(3)) < (0.94862103) Then
            If (inputVector(3)) < (0.7991227) Then
                var8 = -0.0632710308
            Else
                If (inputVector(1)) < (3.2707427) Then
                    var8 = -0.082809858
                Else
                    var8 = -0.0726063401
                End If
            End If
        Else
            If (inputVector(1)) >= (1.5444262) Then
                If (inputVector(3)) < (2.1219418) Then
                    var8 = 0.0630600676
                Else
                    var8 = 0.0859790966
                End If
            Else
                If (inputVector(0)) < (1.1221914) Then
                    var8 = -0.0783716366
                Else
                    var8 = -0.0678582266
                End If
            End If
        End If
    Else
        If (inputVector(4)) < (0.5052279) Then
            If (inputVector(3)) < (0.8857598) Then
                If (inputVector(1)) >= (2.6586537) Then
                    var8 = 0.0447996706
                Else
                    var8 = -0.0632517859
                End If
            Else
                If (inputVector(2)) >= (10.745001) Then
                    var8 = -0.0780369192
                Else
                    var8 = 0.071945861
                End If
            End If
        Else
            If (inputVector(4)) >= (0.912872) Then
                If (inputVector(3)) < (2.7396176) Then
                    var8 = -0.0636462793
                Else
                    var8 = 0.12879248
                End If
            Else
                If (inputVector(3)) >= (1.0713749) Then
                    var8 = -0.067730166
                Else
                    var8 = -0.0617837124
                End If
            End If
        End If
    End If
    Dim var9 As Double
    If (inputVector(5)) >= (5#) Then
        If (inputVector(3)) < (0.7855724) Then
            If (inputVector(3)) < (0.71069443) Then
                var9 = -0.0607510619
            Else
                If (inputVector(5)) >= (6#) Then
                    var9 = -0.0653247461
                Else
                    var9 = -0.0617320649
                End If
            End If
        Else
            If (inputVector(4)) < (1.0321429) Then
                If (inputVector(0)) < (0.8335531) Then
                    var9 = 0.0777974352
                Else
                    var9 = 0.0421937257
                End If
            Else
                If (inputVector(1)) >= (3.3180482) Then
                    var9 = -0.0812663138
                Else
                    var9 = -0.0642365888
                End If
            End If
        End If
    Else
        If (inputVector(3)) >= (1.8958308) Then
            var9 = 0.105795003
        Else
            If (inputVector(4)) < (0.43205494) Then
                If (inputVector(1)) < (6.101449) Then
                    var9 = -0.0625141189
                Else
                    var9 = -0.07155516
                End If
            Else
                If (inputVector(0)) < (0.82372504) Then
                    var9 = -0.0642774329
                Else
                    var9 = -0.0598195568
                End If
            End If
        End If
    End If
    Dim var10 As Double
    If (inputVector(2)) >= (2.0749998) Then
        If (inputVector(3)) < (0.939976) Then
            If (inputVector(5)) >= (7#) Then
                If (inputVector(2)) < (15.459999) Then
                    var10 = 0.086701788
                Else
                    var10 = -0.0697219521
                End If
            Else
                If (inputVector(2)) < (19.95) Then
                    var10 = -0.0610205121
                Else
                    var10 = 0.0610492714
                End If
            End If
        Else
            If (inputVector(5)) >= (5#) Then
                If (inputVector(2)) < (3.125) Then
                    var10 = -0.0670396388
                Else
                    var10 = 0.0638496727
                End If
            Else
                If (inputVector(2)) < (38.4) Then
                    var10 = -0.0634166822
                Else
                    var10 = 0.0798806697
                End If
            End If
        End If
    Else
        If (inputVector(3)) >= (1.4614707) Then
            If (inputVector(0)) < (1.108014) Then
                var10 = 0.0763407797
            Else
                var10 = -0.0578045659
            End If
        Else
            If (inputVector(5)) >= (6#) Then
                If (inputVector(4)) < (0.34305018) Then
                    var10 = -0.104922168
                Else
                    var10 = -0.0670795962
                End If
            Else
                If (inputVector(5)) >= (5#) Then
                    var10 = -0.0624829493
                Else
                    var10 = -0.0589745902
                End If
            End If
        End If
    End If
    Dim var11 As Double
    If (inputVector(2)) < (8.445) Then
        If (inputVector(5)) >= (7#) Then
            If (inputVector(2)) < (4.13) Then
                If (inputVector(4)) < (0.48493302) Then
                    var11 = 0.0694604591
                Else
                    var11 = -0.0632675812
                End If
            Else
                If (inputVector(4)) < (0.39356214) Then
                    var11 = -0.127294466
                Else
                    var11 = -0.0776983574
                End If
            End If
        Else
            If (inputVector(5)) >= (5#) Then
                If (inputVector(3)) < (0.8600184) Then
                    var11 = -0.0598848239
                Else
                    var11 = -0.0691474676
                End If
            Else
                If (inputVector(4)) < (0.3456205) Then
                    var11 = -0.0625244901
                Else
                    var11 = -0.057931792
                End If
            End If
        End If
    Else
        If (inputVector(4)) >= (0.29007715) Then
            If (inputVector(3)) < (0.85553586) Then
                If (inputVector(5)) >= (8#) Then
                    var11 = 0.11214409
                Else
                    var11 = -0.0606300347
                End If
            Else
                If (inputVector(3)) < (1.4818182) Then
                    var11 = 0.043631535
                Else
                    var11 = 0.0693992823
                End If
            End If
        Else
            If (inputVector(1)) >= (1.4073443) Then
                If (inputVector(3)) < (0.96908855) Then
                    var11 = -0.0677392334
                Else
                    var11 = -0.0836384147
                End If
            Else
                var11 = -0.0588106513
            End If
        End If
    End If
    Dim var12 As Double
    If (inputVector(3)) < (0.9410428) Then
        If (inputVector(6)) >= (2#) Then
            If (inputVector(2)) >= (2.35) Then
                If (inputVector(5)) >= (5#) Then
                    var12 = -0.0718648657
                Else
                    var12 = -0.0585803874
                End If
            Else
                If (inputVector(5)) >= (7#) Then
                    var12 = 0.0833603665
                Else
                    var12 = -0.0583560877
                End If
            End If
        Else
            If (inputVector(2)) >= (6.665) Then
                If (inputVector(5)) >= (5#) Then
                    var12 = -0.0639106259
                Else
                    var12 = -0.0576553419
                End If
            Else
                If (inputVector(5)) >= (6#) Then
                    var12 = -0.0599006116
                Else
                    var12 = -0.0570381843
                End If
            End If
        End If
    Else
        If (inputVector(4)) < (1.0508296) Then
            If (inputVector(2)) >= (3.125) Then
                If (inputVector(2)) < (4.21) Then
                    var12 = 0.100062169
                Else
                    var12 = 0.0474233069
                End If
            Else
                If (inputVector(1)) >= (2.6295314) Then
                    var12 = 0.0118606854
                Else
                    var12 = -0.0665504634
                End If
            End If
        Else
            If (inputVector(2)) >= (29.9) Then
                If (inputVector(1)) < (3.6591487) Then
                    var12 = -0.0800421089
                Else
                    var12 = -0.0925564021
                End If
            Else
                If (inputVector(5)) >= (5#) Then
                    var12 = -0.0623025782
                Else
                    var12 = -0.0572543107
                End If
            End If
        End If
    End If
    Dim var13 As Double
    If (inputVector(2)) < (3.62) Then
        If (inputVector(5)) >= (8#) Then
            If (inputVector(0)) < (1.5563271) Then
                If (inputVector(2)) < (3.005) Then
                    var13 = -0.0653171688
                Else
                    var13 = -0.0567548163
                End If
            Else
                var13 = 0.0753273591
            End If
        Else
            If (inputVector(3)) < (0.92693913) Then
                If (inputVector(5)) >= (6#) Then
                    var13 = -0.0602020994
                Else
                    var13 = -0.0565112904
                End If
            Else
                If (inputVector(5)) >= (6#) Then
                    var13 = -0.0655756518
                Else
                    var13 = -0.0587421469
                End If
            End If
        End If
    Else
        If (inputVector(0)) >= (1.3494854) Then
            If (inputVector(3)) < (0.94018185) Then
                If (inputVector(5)) >= (6#) Then
                    var13 = -0.0642752722
                Else
                    var13 = -0.0577527694
                End If
            Else
                If (inputVector(5)) >= (5#) Then
                    var13 = -0.089616999
                Else
                    var13 = -0.0647665784
                End If
            End If
        Else
            If (inputVector(3)) < (1.4678559) Then
                If (inputVector(5)) >= (5#) Then
                    var13 = 0.0413028188
                Else
                    var13 = -0.0587823279
                End If
            Else
                If (inputVector(5)) >= (3#) Then
                    var13 = 0.0695159659
                Else
                    var13 = -0.0563958101
                End If
            End If
        End If
    End If
    Dim var14 As Double
    If (inputVector(5)) >= (6#) Then
        If (inputVector(1)) < (2.6724808) Then
            If (inputVector(3)) >= (0.9582052) Then
                If (inputVector(1)) < (2.0625) Then
                    var14 = 0.0625172108
                Else
                    var14 = -0.0867522582
                End If
            Else
                If (inputVector(4)) < (0.475469) Then
                    var14 = -0.0703871325
                Else
                    var14 = -0.0601975694
                End If
            End If
        Else
            If (inputVector(3)) >= (0.8582122) Then
                If (inputVector(2)) >= (35.370003) Then
                    var14 = 0.0547434464
                Else
                    var14 = -0.00825521629
                End If
            Else
                If (inputVector(2)) < (2.08) Then
                    var14 = -0.0609102547
                Else
                    var14 = 0.0774400383
                End If
            End If
        End If
    Else
        If (inputVector(1)) >= (4.4244156) Then
            If (inputVector(3)) >= (1.1072506) Then
                If (inputVector(2)) < (10.245001) Then
                    var14 = -0.0614617467
                Else
                    var14 = 0.0658540353
                End If
            Else
                If (inputVector(2)) >= (11.55) Then
                    var14 = -0.0737266243
                Else
                    var14 = -0.0563872345
                End If
            End If
        Else
            If (inputVector(4)) < (0.29642856) Then
                If (inputVector(4)) < (0.29007715) Then
                    var14 = -0.0621996187
                Else
                    var14 = 0.0894891471
                End If
            Else
                If (inputVector(2)) >= (24.715) Then
                    var14 = -0.0860940143
                Else
                    var14 = -0.0582058132
                End If
            End If
        End If
    End If
    Dim var15 As Double
    If (inputVector(3)) < (0.957011) Then
        If (inputVector(2)) < (312#) Then
            If (inputVector(5)) >= (5#) Then
                If (inputVector(2)) < (10.54) Then
                    var15 = -0.0593406148
                Else
                    var15 = -0.070695214
                End If
            Else
                If (inputVector(2)) < (21.35) Then
                    var15 = -0.0553037301
                Else
                    var15 = -0.0604936667
                End If
            End If
        Else
            If (inputVector(1)) < (0.91844916) Then
                If (inputVector(1)) < (0.8324808) Then
                    var15 = -0.0552186444
                Else
                    var15 = 0.0932060331
                End If
            Else
                If (inputVector(5)) >= (6#) Then
                    var15 = -0.0679632723
                Else
                    var15 = -0.0558282435
                End If
            End If
        End If
    Else
        If (inputVector(2)) < (3.93) Then
            If (inputVector(5)) >= (5#) Then
                var15 = -0.0615308881
            Else
                var15 = -0.0559604354
            End If
        Else
            If (inputVector(3)) >= (1.4608275) Then
                If (inputVector(5)) >= (9#) Then
                    var15 = -0.201246887
                Else
                    var15 = 0.0655550733
                End If
            Else
                If (inputVector(3)) >= (1.2065698) Then
                    var15 = -0.0946345851
                Else
                    var15 = 0.0406768806
                End If
            End If
        End If
    End If
    Dim var16 As Double
    If (inputVector(2)) >= (19.95) Then
        If (inputVector(0)) < (1.5825893) Then
            If (inputVector(4)) < (0.32976192) Then
                If (inputVector(0)) < (1.391615) Then
                    var16 = -0.0887089148
                Else
                    var16 = -0.0627709776
                End If
            Else
                If (inputVector(2)) < (20.05) Then
                    var16 = 0.139944419
                Else
                    var16 = 0.0538073741
                End If
            End If
        Else
            If (inputVector(5)) >= (8#) Then
                var16 = -0.134474441
            Else
                If (inputVector(6)) >= (2#) Then
                    var16 = -0.10178224
                Else
                    var16 = -0.0668878183
                End If
            End If
        End If
    Else
        If (inputVector(4)) < (0.48255208) Then
            If (inputVector(5)) >= (7#) Then
                If (inputVector(2)) >= (8.585) Then
                    var16 = -0.0876149386
                Else
                    var16 = 0.0650518462
                End If
            Else
                If (inputVector(2)) < (10.385) Then
                    var16 = -0.0595320463
                Else
                    var16 = 0.0411344357
                End If
            End If
        Else
            If (inputVector(0)) < (0.81334627) Then
                If (inputVector(0)) < (0.80198264) Then
                    var16 = -0.0661591366
                Else
                    var16 = 0.109296285
                End If
            Else
                If (inputVector(2)) < (4.54) Then
                    var16 = -0.0556924939
                Else
                    var16 = -0.0617687888
                End If
            End If
        End If
    End If
    Dim var17 As Double
    If (inputVector(2)) < (4.145) Then
        If (inputVector(5)) >= (5#) Then
            If (inputVector(3)) < (0.81964135) Then
                If (inputVector(6)) >= (2#) Then
                    var17 = -0.0582586415
                Else
                    var17 = -0.0551120415
                End If
            Else
                If (inputVector(2)) < (1.78) Then
                    var17 = -0.0579868816
                Else
                    var17 = -0.0628480315
                End If
            End If
        Else
            var17 = -0.0543507524
        End If
    Else
        If (inputVector(5)) >= (5#) Then
            If (inputVector(4)) >= (0.3068723) Then
                If (inputVector(2)) < (4.2200003) Then
                    var17 = 0.159487337
                Else
                    var17 = 0.0417773128
                End If
            Else
                If (inputVector(2)) >= (14.549999) Then
                    var17 = -0.0731983706
                Else
                    var17 = -0.0579576567
                End If
            End If
        Else
            If (inputVector(3)) >= (2.2959006) Then
                var17 = 0.0788137913
            Else
                If (inputVector(3)) >= (1.8672726) Then
                    var17 = -0.120266818
                Else
                    var17 = -0.0569797456
                End If
            End If
        End If
    End If
    Dim var18 As Double
    If (inputVector(2)) < (2.0749998) Then
        If (inputVector(3)) < (1.1552165) Then
            If (inputVector(5)) >= (6#) Then
                If (inputVector(2)) < (1.375) Then
                    var18 = -0.0559363626
                Else
                    var18 = -0.0618933626
                End If
            Else
                var18 = -0.0540028997
            End If
        Else
            If (inputVector(5)) >= (5#) Then
                var18 = -0.0600925945
            Else
                var18 = -0.0548493378
            End If
        End If
    Else
        If (inputVector(3)) < (0.7233571) Then
            If (inputVector(4)) < (0.37548363) Then
                If (inputVector(2)) < (10.325) Then
                    var18 = -0.0549569912
                Else
                    var18 = -0.0619155951
                End If
            Else
                var18 = -0.054489512
            End If
        Else
            If (inputVector(5)) >= (5#) Then
                If (inputVector(2)) >= (4.2200003) Then
                    var18 = 0.0349770188
                Else
                    var18 = 0.0733914226
                End If
            Else
                If (inputVector(2)) >= (39.91) Then
                    var18 = 0.0675412416
                Else
                    var18 = -0.0291009676
                End If
            End If
        End If
    End If
    Dim var19 As Double
    If (inputVector(1)) >= (2.868698) Then
        If (inputVector(2)) < (2.08) Then
            If (inputVector(5)) >= (7#) Then
                var19 = -0.059175808
            Else
                var19 = -0.0536623374
            End If
        Else
            If (inputVector(2)) < (74.55) Then
                If (inputVector(3)) >= (0.68281454) Then
                    var19 = 0.0384290516
                Else
                    var19 = -0.0767804459
                End If
            Else
                If (inputVector(3)) < (0.8522217) Then
                    var19 = -0.0556228943
                Else
                    var19 = 0.0603976212
                End If
            End If
        End If
    Else
        If (inputVector(2)) < (27.5) Then
            If (inputVector(2)) < (5.915) Then
                If (inputVector(3)) >= (1.1046382) Then
                    var19 = -0.0645939335
                Else
                    var19 = -0.0548544638
                End If
            Else
                If (inputVector(3)) < (0.9483597) Then
                    var19 = -0.0588266551
                Else
                    var19 = -0.0753550678
                End If
            End If
        Else
            If (inputVector(1)) < (2.1493056) Then
                If (inputVector(3)) < (0.87652177) Then
                    var19 = -0.0574513972
                Else
                    var19 = 0.0515929945
                End If
            Else
                If (inputVector(2)) < (145.8) Then
                    var19 = -0.0840931311
                Else
                    var19 = -0.0580311902
                End If
            End If
        End If
    End If
    Dim var20 As Double
    var20 = Math.Exp(((((((((((((((((((((0.5) + (var0)) + (var1)) + (var2)) + (var3)) + (var4)) + (var5)) + (var6)) + (var7)) + (var8)) + (var9)) + (var10)) + (var11)) + (var12)) + (var13)) + (var14)) + (var15)) + (var16)) + (var17)) + (var18)) + (var19))
    Dim var21 As Double
    If (inputVector(6)) >= (2#) Then
        If (inputVector(2)) >= (13.514999) Then
            If (inputVector(3)) >= (0.6938776) Then
                If (inputVector(6)) >= (3#) Then
                    var21 = -0.0749960244
                Else
                    var21 = -0.0511543863
                End If
            Else
                var21 = 0.14928323
            End If
        Else
            If (inputVector(3)) >= (0.785894) Then
                If (inputVector(4)) < (0.6317841) Then
                    var21 = -0.0146314474
                Else
                    var21 = 0.149930805
                End If
            Else
                var21 = 0.149979666
            End If
        End If
    Else
        If (inputVector(6)) >= (1#) Then
            If (inputVector(3)) < (0.6602652) Then
                If (inputVector(3)) < (0.65974706) Then
                    var21 = -0.0654165074
                Else
                    var21 = 0.146479219
                End If
            Else
                If (inputVector(4)) < (0.5330808) Then
                    var21 = -0.0716553852
                Else
                    var21 = -0.0743741095
                End If
            End If
        Else
            If (inputVector(2)) < (212#) Then
                var21 = 0.148808941
            Else
                If (inputVector(3)) < (2.0906603) Then
                    var21 = 0.146479219
                Else
                    var21 = -0.074936308
                End If
            End If
        End If
    End If
    Dim var22 As Double
    If (inputVector(2)) >= (9.23) Then
        If (inputVector(4)) < (0.3025568) Then
            If (inputVector(4)) < (0.25119048) Then
                var22 = -0.0717512891
            Else
                If (inputVector(0)) < (2.5605104) Then
                    var22 = 0.139559418
                Else
                    var22 = 0.162374869
                End If
            End If
        Else
            If (inputVector(1)) < (3.9746835) Then
                If (inputVector(6)) >= (2#) Then
                    var22 = -0.0178302154
                Else
                    var22 = -0.0695076361
                End If
            Else
                If (inputVector(2)) < (33#) Then
                    var22 = -0.0589185916
                Else
                    var22 = -0.0697231144
                End If
            End If
        End If
    Else
        If (inputVector(6)) >= (2#) Then
            If (inputVector(0)) >= (0.8313008) Then
                If (inputVector(2)) < (2.0749998) Then
                    var22 = 0.13974902
                Else
                    var22 = 0.142867357
                End If
            Else
                If (inputVector(1)) < (2.2773108) Then
                    var22 = -0.0470887199
                Else
                    var22 = 0.139379978
                End If
            End If
        Else
            If (inputVector(5)) >= (9#) Then
                var22 = 0.129196152
            Else
                If (inputVector(0)) < (1.6858348) Then
                    var22 = -0.0663789734
                Else
                    var22 = -0.0728358701
                End If
            End If
        End If
    End If
    Dim var23 As Double
    If (inputVector(2)) >= (13.59) Then
        If (inputVector(5)) >= (9#) Then
            If (inputVector(6)) >= (2#) Then
                var23 = 0.164500013
            Else
                var23 = -0.069199048
            End If
        Else
            If (inputVector(3)) < (1.1431973) Then
                If (inputVector(5)) >= (8#) Then
                    var23 = 0.151034117
                Else
                    var23 = -0.045931872
                End If
            Else
                If (inputVector(3)) < (1.4678559) Then
                    var23 = -0.0585087352
                Else
                    var23 = -0.0701456666
                End If
            End If
        End If
    Else
        If (inputVector(6)) >= (2#) Then
            If (inputVector(4)) < (0.41125965) Then
                If (inputVector(5)) >= (6#) Then
                    var23 = -0.0377720967
                Else
                    var23 = 0.129029945
                End If
            Else
                If (inputVector(2)) >= (9.63) Then
                    var23 = 0.142053813
                Else
                    var23 = 0.12416321
                End If
            End If
        Else
            If (inputVector(6)) >= (1#) Then
                If (inputVector(2)) >= (12.8) Then
                    var23 = -0.0106324852
                Else
                    var23 = -0.0672918186
                End If
            Else
                If (inputVector(3)) >= (0.9148667) Then
                    var23 = 0.120303504
                Else
                    var23 = 0.146369472
                End If
            End If
        End If
    End If
    Dim var24 As Double
    If (inputVector(6)) >= (2#) Then
        If (inputVector(2)) >= (9.65) Then
            If (inputVector(3)) < (0.94457936) Then
                If (inputVector(5)) >= (5#) Then
                    var24 = 0.147994131
                Else
                    var24 = 0.12745817
                End If
            Else
                If (inputVector(5)) >= (5#) Then
                    var24 = -0.058977481
                Else
                    var24 = 0.146203339
                End If
            End If
        Else
            If (inputVector(3)) >= (0.83190906) Then
                If (inputVector(5)) >= (8#) Then
                    var24 = -0.0648490265
                Else
                    var24 = 0.117436528
                End If
            Else
                If (inputVector(5)) >= (5#) Then
                    var24 = 0.114648819
                Else
                    var24 = 0.109224133
                End If
            End If
        End If
    Else
        If (inputVector(6)) >= (1#) Then
            If (inputVector(2)) >= (1.385) Then
                If (inputVector(5)) >= (10#) Then
                    var24 = 0.188243896
                Else
                    var24 = -0.0636229217
                End If
            Else
                If (inputVector(1)) < (1.8582481) Then
                    var24 = -0.0643943548
                Else
                    var24 = -0.0684697926
                End If
            End If
        Else
            If (inputVector(3)) < (2.0906603) Then
                var24 = 0.126427904
            Else
                If (inputVector(4)) < (0.31692407) Then
                    var24 = 0.130469203
                Else
                    var24 = -0.0697556287
                End If
            End If
        End If
    End If
    Dim var25 As Double
    If (inputVector(0)) >= (1.3479278) Then
        If (inputVector(0)) < (1.4437892) Then
            If (inputVector(3)) >= (1.3497248) Then
                var25 = -0.064420186
            Else
                If (inputVector(2)) >= (7.25) Then
                    var25 = 0.133477122
                Else
                    var25 = 0.0285183284
                End If
            End If
        Else
            If (inputVector(2)) < (141.8) Then
                If (inputVector(4)) >= (0.5597098) Then
                    var25 = 0.00144217582
                Else
                    var25 = -0.0390342288
                End If
            Else
                If (inputVector(3)) < (0.57933533) Then
                    var25 = -0.0162191894
                Else
                    var25 = 0.0668194219
                End If
            End If
        End If
    Else
        If (inputVector(3)) < (0.6809499) Then
            If (inputVector(0)) < (0.961859) Then
                var25 = 0.0999900922
            Else
                If (inputVector(4)) < (0.6305214) Then
                    var25 = -0.0286523849
                Else
                    var25 = 0.0114016281
                End If
            End If
        Else
            If (inputVector(2)) >= (68.11) Then
                If (inputVector(3)) < (1.0244899) Then
                    var25 = 0.173404023
                Else
                    var25 = -0.0643711314
                End If
            Else
                If (inputVector(2)) >= (56.309998) Then
                    var25 = 0.183456436
                Else
                    var25 = -0.0429544337
                End If
            End If
        End If
    End If
    Dim var26 As Double
    If (inputVector(3)) >= (1.0676998) Then
        If (inputVector(2)) >= (3.915) Then
            If (inputVector(2)) < (54.145) Then
                If (inputVector(2)) < (52.7) Then
                    var26 = -0.0525994487
                Else
                    var26 = 0.19592908
                End If
            Else
                If (inputVector(1)) < (5.8325605) Then
                    var26 = -0.060279388
                Else
                    var26 = -0.0651207194
                End If
            End If
        Else
            If (inputVector(4)) >= (0.5116298) Then
                If (inputVector(2)) >= (3.125) Then
                    var26 = 0.0969581306
                Else
                    var26 = -0.0289745461
                End If
            Else
                If (inputVector(5)) >= (7#) Then
                    var26 = 0.141576275
                Else
                    var26 = 0.110956959
                End If
            End If
        End If
    Else
        If (inputVector(6)) >= (2#) Then
            If (inputVector(5)) >= (5#) Then
                If (inputVector(1)) >= (1.9962121) Then
                    var26 = -0.0223222952
                Else
                    var26 = 0.110010162
                End If
            Else
                If (inputVector(2)) >= (15.55) Then
                    var26 = 0.124117605
                Else
                    var26 = 0.0975633413
                End If
            End If
        Else
            If (inputVector(2)) >= (96.505005) Then
                var26 = 0.12239939
            Else
                If (inputVector(1)) >= (6.582332) Then
                    var26 = -0.0288064815
                Else
                    var26 = -0.0610889606
                End If
            End If
        End If
    End If
    Dim var27 As Double
    If (inputVector(6)) >= (2#) Then
        If (inputVector(6)) >= (3#) Then
            If (inputVector(2)) >= (47.36) Then
                If (inputVector(5)) >= (9#) Then
                    var27 = -0.0661881268
                Else
                    var27 = -0.0633539557
                End If
            Else
                var27 = -0.0720917881
            End If
        Else
            If (inputVector(5)) >= (7#) Then
                If (inputVector(2)) < (2.05) Then
                    var27 = 0.103191867
                Else
                    var27 = -0.0465598404
                End If
            Else
                If (inputVector(2)) >= (19.747501) Then
                    var27 = 0.0140391393
                Else
                    var27 = 0.0950199738
                End If
            End If
        End If
    Else
        If (inputVector(1)) < (2.767129) Then
            If (inputVector(1)) < (2.7575135) Then
                If (inputVector(6)) >= (1#) Then
                    var27 = -0.0579995215
                Else
                    var27 = 0.136836991
                End If
            Else
                var27 = 0.201252177
            End If
        Else
            If (inputVector(1)) >= (3.8924963) Then
                If (inputVector(1)) < (3.8993793) Then
                    var27 = 0.160117418
                Else
                    var27 = -0.0595003329
                End If
            Else
                If (inputVector(5)) >= (8#) Then
                    var27 = -0.0663018152
                Else
                    var27 = -0.0636848733
                End If
            End If
        End If
    End If
    Dim var28 As Double
    If (inputVector(6)) >= (2#) Then
        If (inputVector(5)) >= (5#) Then
            If (inputVector(3)) >= (0.7855724) Then
                If (inputVector(2)) < (47.81) Then
                    var28 = -0.00536650559
                Else
                    var28 = -0.0577461012
                End If
            Else
                If (inputVector(2)) >= (12.7) Then
                    var28 = 0.132858574
                Else
                    var28 = 0.0948646516
                End If
            End If
        Else
            If (inputVector(3)) >= (0.93667746) Then
                If (inputVector(2)) >= (19.810001) Then
                    var28 = 0.127466127
                Else
                    var28 = 0.0916000828
                End If
            Else
                If (inputVector(2)) >= (13.325001) Then
                    var28 = 0.101360701
                Else
                    var28 = 0.0845788419
                End If
            End If
        End If
    Else
        If (inputVector(3)) < (0.6602652) Then
            If (inputVector(1)) >= (6.4591007) Then
                var28 = 0.192907438
            Else
                If (inputVector(3)) < (0.65974706) Then
                    var28 = -0.0490383208
                Else
                    var28 = 0.191712841
                End If
            End If
        Else
            If (inputVector(6)) >= (1#) Then
                If (inputVector(0)) >= (1.0797359) Then
                    var28 = -0.0566004813
                Else
                    var28 = -0.0623472296
                End If
            Else
                If (inputVector(3)) < (0.76146793) Then
                    var28 = -0.07179299
                Else
                    var28 = 0.132451713
                End If
            End If
        End If
    End If
    Dim var29 As Double
    If (inputVector(6)) >= (2#) Then
        If (inputVector(3)) < (0.8857598) Then
            If (inputVector(3)) < (0.83427644) Then
                If (inputVector(5)) >= (5#) Then
                    var29 = 0.0880686715
                Else
                    var29 = 0.0793593004
                End If
            Else
                If (inputVector(5)) >= (6#) Then
                    var29 = 0.115042247
                Else
                    var29 = 0.0831166655
                End If
            End If
        Else
            If (inputVector(6)) >= (3#) Then
                If (inputVector(4)) < (0.65170527) Then
                    var29 = -0.0694279298
                Else
                    var29 = -0.0607156344
                End If
            Else
                If (inputVector(5)) >= (7#) Then
                    var29 = -0.041557055
                Else
                    var29 = 0.0696274415
                End If
            End If
        End If
    Else
        If (inputVector(4)) >= (1.5280879) Then
            var29 = 0.207973823
        Else
            If (inputVector(6)) >= (1#) Then
                If (inputVector(4)) < (0.28203914) Then
                    var29 = -0.0174647458
                Else
                    var29 = -0.058610972
                End If
            Else
                var29 = 0.174413964
            End If
        End If
    End If
    Dim var30 As Double
    If (inputVector(6)) >= (2#) Then
        If (inputVector(3)) >= (0.9460606) Then
            If (inputVector(2)) < (3.615) Then
                If (inputVector(0)) < (1.0931721) Then
                    var30 = 0.111170314
                Else
                    var30 = 0.0826120079
                End If
            Else
                If (inputVector(3)) < (1.4608275) Then
                    var30 = -0.0307577047
                Else
                    var30 = -0.0594004393
                End If
            End If
        Else
            If (inputVector(0)) < (0.8188895) Then
                If (inputVector(0)) < (0.7659575) Then
                    var30 = 0.0740876049
                Else
                    var30 = -0.0905040056
                End If
            Else
                If (inputVector(1)) >= (3.7652974) Then
                    var30 = -0.00121398258
                Else
                    var30 = 0.0807527527
                End If
            End If
        End If
    Else
        If (inputVector(4)) >= (1.5280879) Then
            var30 = 0.181033596
        Else
            If (inputVector(3)) < (0.6602652) Then
                If (inputVector(4)) < (0.29079795) Then
                    var30 = 0.248681501
                Else
                    var30 = -0.04728508
                End If
            Else
                If (inputVector(4)) < (0.58578646) Then
                    var30 = -0.054386612
                Else
                    var30 = -0.0592544451
                End If
            End If
        End If
    End If
    Dim var31 As Double
    If (inputVector(5)) >= (7#) Then
        If (inputVector(1)) < (1.971143) Then
            If (inputVector(4)) < (0.33959037) Then
                If (inputVector(0)) < (2.437501) Then
                    var31 = -0.0765945166
                Else
                    var31 = 0.128535002
                End If
            Else
                If (inputVector(1)) < (1.6286701) Then
                    var31 = 0.0119906273
                Else
                    var31 = 0.123216413
                End If
            End If
        Else
            If (inputVector(2)) < (2.05) Then
                If (inputVector(1)) >= (2.95223) Then
                    var31 = -0.0360864699
                Else
                    var31 = 0.0846719071
                End If
            Else
                If (inputVector(2)) < (2.415) Then
                    var31 = -0.0778703392
                Else
                    var31 = -0.050646808
                End If
            End If
        End If
    Else
        If (inputVector(3)) >= (1.1337824) Then
            If (inputVector(3)) < (1.9979877) Then
                If (inputVector(0)) < (1.1589912) Then
                    var31 = -0.0557938591
                Else
                    var31 = 0.00294542569
                End If
            Else
                If (inputVector(0)) < (1.2813919) Then
                    var31 = 0.152651772
                Else
                    var31 = 0.268446565
                End If
            End If
        Else
            If (inputVector(5)) >= (4#) Then
                If (inputVector(1)) >= (3.077381) Then
                    var31 = 0.0151782976
                Else
                    var31 = -0.00913115684
                End If
            Else
                If (inputVector(0)) < (0.949294) Then
                    var31 = 0.0736745149
                Else
                    var31 = -0.0205282252
                End If
            End If
        End If
    End If
    Dim var32 As Double
    If (inputVector(3)) >= (1.4566432) Then
        If (inputVector(5)) >= (4#) Then
            If (inputVector(5)) >= (5#) Then
                If (inputVector(2)) >= (47.86) Then
                    var32 = -0.0568618588
                Else
                    var32 = -0.0609079599
                End If
            Else
                If (inputVector(0)) < (1.1913252) Then
                    var32 = 0.0765330419
                Else
                    var32 = 0.142171293
                End If
            End If
        Else
            If (inputVector(0)) < (1.1773244) Then
                var32 = -0.0726886019
            Else
                var32 = -0.0590320341
            End If
        End If
    Else
        If (inputVector(5)) >= (7#) Then
            If (inputVector(3)) >= (1.2381262) Then
                If (inputVector(3)) < (1.2944341) Then
                    var32 = 0.257554382
                Else
                    var32 = 0.00695692841
                End If
            Else
                If (inputVector(2)) < (1.3) Then
                    var32 = 0.0170542002
                Else
                    var32 = -0.049673032
                End If
            End If
        Else
            If (inputVector(0)) >= (1.0289917) Then
                If (inputVector(0)) < (1.0534122) Then
                    var32 = 0.0924763754
                Else
                    var32 = -0.00788722653
                End If
            Else
                If (inputVector(3)) < (1.2141641) Then
                    var32 = -0.0374413393
                Else
                    var32 = -0.00607986934
                End If
            End If
        End If
    End If
    Dim var33 As Double
    If (inputVector(6)) >= (2#) Then
        If (inputVector(3)) >= (1.4608275) Then
            If (inputVector(6)) >= (3#) Then
                If (inputVector(3)) < (4.204752) Then
                    var33 = -0.0580739677
                Else
                    var33 = -0.0675846562
                End If
            Else
                If (inputVector(4)) < (0.51216215) Then
                    var33 = -0.0536044948
                Else
                    var33 = 0.287650973
                End If
            End If
        Else
            If (inputVector(4)) < (0.41125965) Then
                If (inputVector(4)) < (0.32406995) Then
                    var33 = 0.101216726
                Else
                    var33 = -0.040369492
                End If
            Else
                If (inputVector(2)) >= (120#) Then
                    var33 = -0.0607137084
                Else
                    var33 = 0.0672275275
                End If
            End If
        End If
    Else
        If (inputVector(6)) >= (1#) Then
            If (inputVector(0)) >= (1.0164106) Then
                If (inputVector(2)) >= (81.399994) Then
                    var33 = 0.0548263304
                Else
                    var33 = -0.0507289134
                End If
            Else
                var33 = -0.0583612099
            End If
        Else
            If (inputVector(0)) < (1.2272259) Then
                If (inputVector(2)) < (54.57) Then
                    var33 = 0.143593416
                Else
                    var33 = 0.117916606
                End If
            Else
                var33 = -0.0679185987
            End If
        End If
    End If
    Dim var34 As Double
    If (inputVector(6)) >= (2#) Then
        If (inputVector(0)) >= (0.9466572) Then
            If (inputVector(3)) < (1.1616327) Then
                If (inputVector(3)) < (0.959859) Then
                    var34 = 0.0739602372
                Else
                    var34 = 0.115736537
                End If
            Else
                If (inputVector(1)) < (3.7055984) Then
                    var34 = 0.1014001
                Else
                    var34 = -0.0433987975
                End If
            End If
        Else
            If (inputVector(5)) >= (5#) Then
                If (inputVector(3)) >= (0.78098524) Then
                    var34 = -0.0529478602
                Else
                    var34 = 0.0846117586
                End If
            Else
                If (inputVector(4)) < (0.5247396) Then
                    var34 = 0.0771001056
                Else
                    var34 = 0.0704822168
                End If
            End If
        End If
    Else
        If (inputVector(6)) >= (1#) Then
            If (inputVector(4)) >= (1.4471354) Then
                var34 = 0.187132403
            Else
                If (inputVector(5)) >= (10#) Then
                    var34 = 0.0247335602
                Else
                    var34 = -0.0544002168
                End If
            End If
        Else
            If (inputVector(3)) >= (0.76146793) Then
                If (inputVector(1)) < (4.857518) Then
                    var34 = 0.143507928
                Else
                    var34 = 0.113652065
                End If
            Else
                If (inputVector(1)) < (2.2680943) Then
                    var34 = 0.131335735
                Else
                    var34 = -0.034492936
                End If
            End If
        End If
    End If
    Dim var35 As Double
    If (inputVector(6)) >= (2#) Then
        If (inputVector(2)) < (19.95) Then
            If (inputVector(4)) < (0.41155726) Then
                If (inputVector(0)) >= (1.6142242) Then
                    var35 = -0.0382729433
                Else
                    var35 = 0.0818092525
                End If
            Else
                If (inputVector(2)) < (8.85) Then
                    var35 = 0.0705348998
                Else
                    var35 = 0.102417819
                End If
            End If
        Else
            If (inputVector(6)) >= (3#) Then
                If (inputVector(0)) >= (1.1620733) Then
                    var35 = -0.0671140775
                Else
                    var35 = -0.0567637458
                End If
            Else
                If (inputVector(0)) < (1.3479278) Then
                    var35 = -0.0279050302
                Else
                    var35 = 0.0801491886
                End If
            End If
        End If
    Else
        If (inputVector(0)) >= (1.3704851) Then
            If (inputVector(4)) < (0.27950937) Then
                var35 = 0.221683055
            Else
                If (inputVector(0)) < (1.3739895) Then
                    var35 = 0.302064121
                Else
                    var35 = -0.0461134017
                End If
            End If
        Else
            If (inputVector(4)) >= (1.4471354) Then
                var35 = 0.166509271
            Else
                If (inputVector(6)) >= (1#) Then
                    var35 = -0.0551387966
                Else
                    var35 = 0.00258783856
                End If
            End If
        End If
    End If
    Dim var36 As Double
    If (inputVector(3)) < (0.6808163) Then
        If (inputVector(6)) >= (2#) Then
            If (inputVector(5)) >= (6#) Then
                var36 = 0.069079183
            Else
                var36 = 0.064743191
            End If
        Else
            If (inputVector(6)) >= (1#) Then
                If (inputVector(3)) < (0.6768322) Then
                    var36 = -0.0439722016
                Else
                    var36 = 0.057990022
                End If
            Else
                var36 = 0.127130553
            End If
        End If
    Else
        If (inputVector(6)) >= (2#) Then
            If (inputVector(5)) >= (5#) Then
                If (inputVector(5)) >= (7#) Then
                    var36 = -0.0426443964
                Else
                    var36 = -0.00273415027
                End If
            Else
                If (inputVector(3)) >= (1.7516493) Then
                    var36 = 0.156072542
                Else
                    var36 = 0.0674609095
                End If
            End If
        Else
            If (inputVector(0)) < (0.82713413) Then
                If (inputVector(3)) < (1.6127784) Then
                    var36 = -0.0500121228
                Else
                    var36 = 0.134446338
                End If
            Else
                If (inputVector(4)) < (0.28308308) Then
                    var36 = -0.021339681
                Else
                    var36 = -0.0538632944
                End If
            End If
        End If
    End If
    Dim var37 As Double
    If (inputVector(6)) >= (2#) Then
        If (inputVector(1)) < (3.6362941) Then
            If (inputVector(0)) >= (1.1570873) Then
                If (inputVector(3)) < (0.9307332) Then
                    var37 = 0.0657133013
                Else
                    var37 = 0.0827649981
                End If
            Else
                If (inputVector(3)) >= (0.7855724) Then
                    var37 = -0.0315850191
                Else
                    var37 = 0.0661288127
                End If
            End If
        Else
            If (inputVector(2)) >= (9.65) Then
                If (inputVector(3)) < (0.7899021) Then
                    var37 = -0.0954519883
                Else
                    var37 = -0.0465335175
                End If
            Else
                If (inputVector(1)) >= (8.55) Then
                    var37 = 0.0967446938
                Else
                    var37 = 0.0686156899
                End If
            End If
        End If
    Else
        If (inputVector(4)) < (0.28169644) Then
            If (inputVector(1)) < (2.0308642) Then
                If (inputVector(3)) < (0.7261922) Then
                    var37 = 0.203382924
                Else
                    var37 = -0.0577059984
                End If
            Else
                If (inputVector(1)) < (3.7173612) Then
                    var37 = 0.264190644
                Else
                    var37 = 0.104804873
                End If
            End If
        Else
            If (inputVector(3)) < (0.6403673) Then
                If (inputVector(3)) < (0.6364089) Then
                    var37 = -0.0337918997
                Else
                    var37 = 0.434714139
                End If
            Else
                If (inputVector(4)) >= (1.5280879) Then
                    var37 = 0.147444889
                Else
                    var37 = -0.0514076725
                End If
            End If
        End If
    End If
    Dim var38 As Double
    If (inputVector(6)) >= (2#) Then
        If (inputVector(6)) >= (3#) Then
            If (inputVector(5)) >= (6#) Then
                var38 = -0.0551196299
            Else
                If (inputVector(0)) >= (0.93874323) Then
                    var38 = -0.0624337308
                Else
                    var38 = -0.0669430941
                End If
            End If
        Else
            If (inputVector(5)) >= (7#) Then
                If (inputVector(1)) >= (0.9911765) Then
                    var38 = -0.00916729402
                Else
                    var38 = -0.0696185455
                End If
            Else
                If (inputVector(0)) < (4.6923084) Then
                    var38 = 0.0722574443
                Else
                    var38 = -0.00599038089
                End If
            End If
        End If
    Else
        If (inputVector(3)) < (0.70146906) Then
            If (inputVector(3)) < (0.7010189) Then
                If (inputVector(1)) >= (5.505009) Then
                    var38 = 0.0734247491
                Else
                    var38 = -0.0398714505
                End If
            Else
                var38 = 0.387392014
            End If
        Else
            If (inputVector(5)) >= (10#) Then
                If (inputVector(0)) < (0.93262637) Then
                    var38 = -0.0567467995
                Else
                    var38 = 0.275396973
                End If
            Else
                If (inputVector(3)) >= (1.9266055) Then
                    var38 = 0.0441143326
                Else
                    var38 = -0.051648628
                End If
            End If
        End If
    End If
    Dim var39 As Double
    If (inputVector(2)) >= (13.59) Then
        If (inputVector(6)) >= (3#) Then
            If (inputVector(1)) < (1.9779195) Then
                var39 = -0.0654743463
            Else
                If (inputVector(3)) < (4.204752) Then
                    var39 = -0.0549621098
                Else
                    var39 = -0.0648035258
                End If
            End If
        Else
            If (inputVector(2)) < (20.369999) Then
                If (inputVector(3)) < (0.9692553) Then
                    var39 = -0.0736448243
                Else
                    var39 = -0.0202084091
                End If
            Else
                If (inputVector(6)) >= (2#) Then
                    var39 = -0.00928123668
                Else
                    var39 = -0.0512334891
                End If
            End If
        End If
    Else
        If (inputVector(6)) >= (2#) Then
            If (inputVector(0)) >= (0.8313008) Then
                If (inputVector(5)) >= (7#) Then
                    var39 = 0.0903566331
                Else
                    var39 = 0.0646163449
                End If
            Else
                If (inputVector(5)) >= (6#) Then
                    var39 = -0.0625984147
                Else
                    var39 = 0.0642346144
                End If
            End If
        Else
            If (inputVector(1)) < (1.5990431) Then
                If (inputVector(3)) >= (0.6862128) Then
                    var39 = -0.0496568233
                Else
                    var39 = -0.00735218544
                End If
            Else
                If (inputVector(0)) < (0.8734144) Then
                    var39 = -0.0140148941
                Else
                    var39 = -0.0525977872
                End If
            End If
        End If
    End If
    Dim var40 As Double
    If (inputVector(2)) < (33.25) Then
        If (inputVector(6)) >= (2#) Then
            If (inputVector(5)) >= (6#) Then
                If (inputVector(4)) < (0.4743529) Then
                    var40 = -0.0222609527
                Else
                    var40 = 0.0907294527
                End If
            Else
                If (inputVector(2)) < (12.15) Then
                    var40 = 0.0611806773
                Else
                    var40 = 0.0890092626
                End If
            End If
        Else
            If (inputVector(2)) < (32.27) Then
                If (inputVector(0)) < (1.4443439) Then
                    var40 = -0.036964193
                Else
                    var40 = -0.0528654046
                End If
            Else
                var40 = 0.234230474
            End If
        End If
    Else
        If (inputVector(6)) >= (3#) Then
            If (inputVector(5)) >= (5#) Then
                If (inputVector(4)) < (0.5200785) Then
                    var40 = -0.0567078479
                Else
                    var40 = -0.0538907237
                End If
            Else
                var40 = -0.0640356988
            End If
        Else
            If (inputVector(6)) >= (2#) Then
                If (inputVector(4)) < (0.42942262) Then
                    var40 = -0.0478807762
                Else
                    var40 = 0.0981177315
                End If
            Else
                If (inputVector(4)) >= (1.3045678) Then
                    var40 = 0.141680464
                Else
                    var40 = -0.0511105917
                End If
            End If
        End If
    End If
    Dim var41 As Double
    var41 = Math.Exp(((((((((((((((((((((0.5) + (var21)) + (var22)) + (var23)) + (var24)) + (var25)) + (var26)) + (var27)) + (var28)) + (var29)) + (var30)) + (var31)) + (var32)) + (var33)) + (var34)) + (var35)) + (var36)) + (var37)) + (var38)) + (var39)) + (var40))
    Dim var42 As Double
    If (inputVector(2)) >= (19.7) Then
        If (inputVector(3)) < (1.4666425) Then
            If (inputVector(4)) < (0.4289322) Then
                If (inputVector(2)) < (88.45) Then
                    var42 = 0.113888502
                Else
                    var42 = -0.0740543976
                End If
            Else
                If (inputVector(4)) < (0.6613176) Then
                    var42 = -0.0453159995
                Else
                    var42 = 0.0936043039
                End If
            End If
        Else
            If (inputVector(4)) < (0.91899633) Then
                If (inputVector(5)) >= (6#) Then
                    var42 = -0.0749942884
                Else
                    var42 = -0.0645895749
                End If
            Else
                If (inputVector(2)) < (104.895) Then
                    var42 = 0.148808941
                Else
                    var42 = -0.0731295869
                End If
            End If
        End If
    Else
        If (inputVector(4)) < (0.43236205) Then
            If (inputVector(3)) < (0.85258853) Then
                If (inputVector(5)) >= (8#) Then
                    var42 = -0.0749383569
                Else
                    var42 = 0.099547714
                End If
            Else
                If (inputVector(2)) >= (15.15) Then
                    var42 = 0.135732576
                Else
                    var42 = -0.0693202391
                End If
            End If
        Else
            If (inputVector(5)) >= (7#) Then
                If (inputVector(4)) < (0.6312711) Then
                    var42 = -0.0257728696
                Else
                    var42 = 0.143023953
                End If
            Else
                If (inputVector(4)) >= (0.8884921) Then
                    var42 = 0.0374906249
                Else
                    var42 = 0.103984773
                End If
            End If
        End If
    End If
    Dim var43 As Double
    If (inputVector(6)) >= (2#) Then
        If (inputVector(2)) >= (27.6) Then
            If (inputVector(4)) < (0.37316602) Then
                If (inputVector(2)) < (110.7) Then
                    var43 = -0.0769017041
                Else
                    var43 = -0.0719461069
                End If
            Else
                If (inputVector(3)) < (1.4189091) Then
                    var43 = -0.076040186
                Else
                    var43 = -0.0722031817
                End If
            End If
        Else
            If (inputVector(4)) < (0.4129539) Then
                If (inputVector(3)) < (0.8288441) Then
                    var43 = -0.0766828731
                Else
                    var43 = -0.072746031
                End If
            Else
                If (inputVector(2)) >= (1.535) Then
                    var43 = -0.0747319385
                Else
                    var43 = -0.0762283579
                End If
            End If
        End If
    Else
        If (inputVector(2)) >= (25.555) Then
            If (inputVector(4)) < (0.6099582) Then
                If (inputVector(3)) < (1.0550458) Then
                    var43 = 0.125747964
                Else
                    var43 = -0.0592656843
                End If
            Else
                If (inputVector(1)) < (8.959259) Then
                    var43 = 0.142934129
                Else
                    var43 = -0.073160708
                End If
            End If
        Else
            If (inputVector(2)) < (4.135) Then
                If (inputVector(3)) < (3.2622232) Then
                    var43 = 0.132027254
                Else
                    var43 = 0.112193286
                End If
            Else
                If (inputVector(2)) < (4.1949997) Then
                    var43 = -0.0798266679
                Else
                    var43 = 0.0874869898
                End If
            End If
        End If
    End If
    Dim var44 As Double
    If (inputVector(6)) >= (2#) Then
        If (inputVector(2)) < (35.15) Then
            If (inputVector(2)) < (32.6) Then
                If (inputVector(4)) < (0.39185268) Then
                    var44 = -0.0710612088
                Else
                    var44 = -0.0733627081
                End If
            Else
                var44 = -0.0760785788
            End If
        Else
            If (inputVector(4)) >= (0.331064) Then
                If (inputVector(5)) >= (6#) Then
                    var44 = -0.0707430467
                Else
                    var44 = -0.0724186078
                End If
            Else
                var44 = -0.0736274049
            End If
        End If
    Else
        If (inputVector(5)) >= (6#) Then
            If (inputVector(4)) < (0.6072424) Then
                If (inputVector(4)) < (0.42313343) Then
                    var44 = 0.123932384
                Else
                    var44 = -0.0191989187
                End If
            Else
                If (inputVector(4)) >= (0.8420762) Then
                    var44 = 0.128478572
                Else
                    var44 = 0.116882041
                End If
            End If
        Else
            If (inputVector(4)) < (0.30210745) Then
                If (inputVector(4)) < (0.28869048) Then
                    var44 = 0.125932083
                Else
                    var44 = -0.0735935271
                End If
            Else
                If (inputVector(4)) >= (1.5280879) Then
                    var44 = -0.0706654266
                Else
                    var44 = 0.11854317
                End If
            End If
        End If
    End If
    Dim var45 As Double
    If (inputVector(6)) >= (2#) Then
        If (inputVector(1)) >= (2.1055555) Then
            If (inputVector(3)) >= (1.4484081) Then
                If (inputVector(4)) < (0.90671456) Then
                    var45 = -0.0674730316
                Else
                    var45 = -0.0715297833
                End If
            Else
                If (inputVector(0)) < (0.81854105) Then
                    var45 = -0.0686214343
                Else
                    var45 = -0.0703643784
                End If
            End If
        Else
            If (inputVector(3)) >= (0.9554237) Then
                var45 = -0.073044531
            Else
                var45 = -0.0705581605
            End If
        End If
    Else
        If (inputVector(1)) >= (6.3006735) Then
            If (inputVector(3)) < (1.2739617) Then
                If (inputVector(4)) < (0.4422619) Then
                    var45 = -0.0897907242
                Else
                    var45 = 0.10398411
                End If
            Else
                If (inputVector(6)) >= (1#) Then
                    var45 = -0.0703882426
                Else
                    var45 = -0.0820216164
                End If
            End If
        Else
            If (inputVector(4)) < (0.40748203) Then
                If (inputVector(0)) >= (1.3059456) Then
                    var45 = 0.102579668
                Else
                    var45 = -0.0161149334
                End If
            Else
                If (inputVector(5)) >= (6#) Then
                    var45 = 0.0709627867
                Else
                    var45 = 0.106083386
                End If
            End If
        End If
    End If
    Dim var46 As Double
    If (inputVector(6)) >= (2#) Then
        If (inputVector(3)) < (1.4578276) Then
            If (inputVector(3)) < (1.1625183) Then
                If (inputVector(0)) < (0.9466572) Then
                    var46 = -0.070709765
                Else
                    var46 = -0.0676996782
                End If
            Else
                var46 = -0.0697137564
            End If
        Else
            If (inputVector(3)) < (2.1433592) Then
                var46 = -0.0654069409
            Else
                If (inputVector(4)) < (0.51594067) Then
                    var46 = -0.0654753
                Else
                    var46 = -0.0685174987
                End If
            End If
        End If
    Else
        If (inputVector(3)) < (1.1073186) Then
            If (inputVector(5)) >= (8#) Then
                If (inputVector(0)) >= (1.2452562) Then
                    var46 = 0.0972216874
                Else
                    var46 = -0.0804290101
                End If
            Else
                If (inputVector(4)) < (0.4257531) Then
                    var46 = 0.0626607388
                Else
                    var46 = 0.0989259854
                End If
            End If
        Else
            If (inputVector(1)) >= (1.5444262) Then
                If (inputVector(0)) < (1.4565476) Then
                    var46 = -0.032654386
                Else
                    var46 = 0.110962883
                End If
            Else
                If (inputVector(5)) >= (9#) Then
                    var46 = -0.0733452514
                Else
                    var46 = 0.1037037
                End If
            End If
        End If
    End If
    Dim var47 As Double
    If (inputVector(6)) >= (2#) Then
        If (inputVector(5)) >= (6#) Then
            If (inputVector(3)) < (1.4530001) Then
                If (inputVector(2)) >= (21.36) Then
                    var47 = -0.0678637102
                Else
                    var47 = -0.0648466051
                End If
            Else
                If (inputVector(4)) < (0.90671456) Then
                    var47 = -0.0638410673
                Else
                    var47 = -0.0670091361
                End If
            End If
        Else
            If (inputVector(2)) >= (56.43) Then
                var47 = -0.0637558475
            Else
                var47 = -0.0677148625
            End If
        End If
    Else
        If (inputVector(2)) < (26.189999) Then
            If (inputVector(5)) >= (8#) Then
                If (inputVector(4)) < (0.4249256) Then
                    var47 = -0.0758199394
                Else
                    var47 = 0.109872125
                End If
            Else
                If (inputVector(3)) >= (1.8004587) Then
                    var47 = -0.0748299286
                Else
                    var47 = 0.0877029151
                End If
            End If
        Else
            If (inputVector(5)) >= (4#) Then
                If (inputVector(3)) < (1.1021705) Then
                    var47 = 0.100999534
                Else
                    var47 = -0.033545807
                End If
            Else
                If (inputVector(3)) < (0.69682413) Then
                    var47 = 0.0579909682
                Else
                    var47 = 0.0936743021
                End If
            End If
        End If
    End If
    Dim var48 As Double
    If (inputVector(6)) >= (2#) Then
        If (inputVector(3)) < (1.4580317) Then
            If (inputVector(2)) >= (20.369999) Then
                var48 = -0.0664690882
            Else
                If (inputVector(0)) < (0.8174047) Then
                    var48 = -0.0633819252
                Else
                    var48 = -0.0654486716
                End If
            End If
        Else
            If (inputVector(2)) >= (47.45) Then
                var48 = -0.0628470406
            Else
                If (inputVector(4)) < (0.51594067) Then
                    var48 = -0.0622896738
                Else
                    var48 = -0.0656706914
                End If
            End If
        End If
    Else
        If (inputVector(4)) < (0.5052279) Then
            If (inputVector(2)) < (3.125) Then
                If (inputVector(4)) < (0.28055334) Then
                    var48 = -0.111831427
                Else
                    var48 = 0.0850226209
                End If
            Else
                If (inputVector(1)) >= (3.4221745) Then
                    var48 = -0.0583527498
                Else
                    var48 = 0.0355593301
                End If
            End If
        Else
            If (inputVector(0)) >= (0.82546216) Then
                If (inputVector(2)) >= (55.105) Then
                    var48 = 0.13219513
                Else
                    var48 = 0.0860162452
                End If
            Else
                If (inputVector(1)) < (1.3397436) Then
                    var48 = -0.0639453977
                Else
                    var48 = 0.0696011409
                End If
            End If
        End If
    End If
    Dim var49 As Double
    If (inputVector(3)) >= (1.1807051) Then
        If (inputVector(0)) < (1.353929) Then
            If (inputVector(1)) >= (1.4580662) Then
                If (inputVector(3)) < (1.416562) Then
                    var49 = -0.0378785916
                Else
                    var49 = -0.0634300634
                End If
            Else
                If (inputVector(3)) < (1.385804) Then
                    var49 = 0.0993361324
                Else
                    var49 = -0.0669560581
                End If
            End If
        Else
            If (inputVector(6)) >= (2#) Then
                var49 = -0.0630799457
            Else
                If (inputVector(1)) >= (3.1703095) Then
                    var49 = 0.120480873
                Else
                    var49 = 0.0706124753
                End If
            End If
        End If
    Else
        If (inputVector(6)) >= (2#) Then
            var49 = -0.0638750121
        Else
            If (inputVector(3)) < (1.1073186) Then
                If (inputVector(5)) >= (7#) Then
                    var49 = 0.0460985303
                Else
                    var49 = 0.0815804005
                End If
            Else
                If (inputVector(1)) >= (1.8011539) Then
                    var49 = -0.0224465448
                Else
                    var49 = 0.0841255784
                End If
            End If
        End If
    End If
    Dim var50 As Double
    If (inputVector(2)) < (9.41) Then
        If (inputVector(5)) >= (6#) Then
            If (inputVector(0)) >= (0.8604385) Then
                If (inputVector(6)) >= (2#) Then
                    var50 = -0.0612997711
                Else
                    var50 = 0.0833461061
                End If
            Else
                If (inputVector(2)) < (4.245) Then
                    var50 = -0.0596816912
                Else
                    var50 = 0.0886303037
                End If
            End If
        Else
            If (inputVector(4)) < (0.24439076) Then
                var50 = -0.0626600236
            Else
                If (inputVector(6)) >= (2#) Then
                    var50 = -0.0623441339
                Else
                    var50 = 0.0752793774
                End If
            End If
        End If
    Else
        If (inputVector(1)) >= (3.6986806) Then
            If (inputVector(0)) >= (1.3586481) Then
                If (inputVector(6)) >= (2#) Then
                    var50 = -0.0615935922
                Else
                    var50 = 0.100009695
                End If
            Else
                If (inputVector(5)) >= (5#) Then
                    var50 = -0.0606717654
                Else
                    var50 = -0.0270118508
                End If
            End If
        Else
            If (inputVector(1)) < (2.9446993) Then
                If (inputVector(6)) >= (2#) Then
                    var50 = -0.0629139915
                Else
                    var50 = 0.02904124
                End If
            Else
                If (inputVector(6)) >= (2#) Then
                    var50 = -0.0626185983
                Else
                    var50 = 0.0643407702
                End If
            End If
        End If
    End If
    Dim var51 As Double
    If (inputVector(2)) >= (19.645) Then
        If (inputVector(0)) >= (1.331903) Then
            If (inputVector(3)) >= (1.223578) Then
                If (inputVector(0)) < (1.390727) Then
                    var51 = 0.0913617834
                Else
                    var51 = 0.14776282
                End If
            Else
                If (inputVector(0)) < (1.3417771) Then
                    var51 = 0.0787157044
                Else
                    var51 = -0.0623090342
                End If
            End If
        Else
            If (inputVector(3)) >= (1.1185532) Then
                If (inputVector(1)) < (58.4) Then
                    var51 = -0.0517766066
                Else
                    var51 = 0.112830698
                End If
            Else
                If (inputVector(4)) < (0.5564028) Then
                    var51 = -0.0219437815
                Else
                    var51 = 0.0876092762
                End If
            End If
        End If
    Else
        If (inputVector(5)) >= (7#) Then
            If (inputVector(3)) < (0.68281454) Then
                If (inputVector(5)) >= (9#) Then
                    var51 = -0.0600901209
                Else
                    var51 = 0.0702225417
                End If
            Else
                If (inputVector(4)) < (0.50811183) Then
                    var51 = -0.0583307259
                Else
                    var51 = 0.0209750533
                End If
            End If
        Else
            If (inputVector(3)) >= (1.4614707) Then
                If (inputVector(0)) < (1.1596935) Then
                    var51 = -0.0583003424
                Else
                    var51 = 0.0737475157
                End If
            Else
                If (inputVector(4)) < (0.29642856) Then
                    var51 = -0.0277080145
                Else
                    var51 = 0.051924713
                End If
            End If
        End If
    End If
    Dim var52 As Double
    If (inputVector(6)) >= (2#) Then
        If (inputVector(6)) >= (3#) Then
            var52 = -0.0585425384
        Else
            If (inputVector(2)) >= (9.950001) Then
                If (inputVector(2)) < (44.725) Then
                    var52 = -0.0627290234
                Else
                    var52 = -0.060400214
                End If
            Else
                If (inputVector(5)) >= (7#) Then
                    var52 = -0.0595662706
                Else
                    var52 = -0.0610523187
                End If
            End If
        End If
    Else
        If (inputVector(3)) < (1.8741643) Then
            If (inputVector(3)) < (0.85617185) Then
                If (inputVector(2)) >= (5.525) Then
                    var52 = 0.07864061
                Else
                    var52 = 0.0683881342
                End If
            Else
                If (inputVector(5)) >= (5#) Then
                    var52 = 0.0148100927
                Else
                    var52 = 0.0728766397
                End If
            End If
        Else
            If (inputVector(0)) >= (1.0115681) Then
                If (inputVector(2)) < (2.8) Then
                    var52 = 0.076715067
                Else
                    var52 = -0.0579828434
                End If
            Else
                If (inputVector(3)) < (3.798996) Then
                    var52 = 0.182603166
                Else
                    var52 = 0.0767687783
                End If
            End If
        End If
    End If
    Dim var53 As Double
    If (inputVector(6)) >= (2#) Then
        If (inputVector(3)) >= (1.4530001) Then
            var53 = -0.057594683
        Else
            If (inputVector(5)) >= (7#) Then
                var53 = -0.0593853407
            Else
                If (inputVector(6)) >= (3#) Then
                    var53 = -0.0654354617
                Else
                    var53 = -0.0609800592
                End If
            End If
        End If
    Else
        If (inputVector(3)) < (0.9410428) Then
            If (inputVector(5)) >= (8#) Then
                If (inputVector(0)) < (2.562501) Then
                    var53 = 0.068652235
                Else
                    var53 = -0.0766420886
                End If
            Else
                If (inputVector(2)) >= (68.81) Then
                    var53 = -0.113587551
                Else
                    var53 = 0.067712225
                End If
            End If
        Else
            If (inputVector(4)) < (0.65384996) Then
                If (inputVector(2)) < (3.125) Then
                    var53 = 0.0705995411
                Else
                    var53 = -0.0219481252
                End If
            Else
                If (inputVector(6)) >= (1#) Then
                    var53 = 0.0771877915
                Else
                    var53 = -0.0735192969
                End If
            End If
        End If
    End If
    Dim var54 As Double
    If (inputVector(5)) >= (5#) Then
        If (inputVector(6)) >= (2#) Then
            If (inputVector(3)) < (1.4530001) Then
                If (inputVector(0)) < (0.7228261) Then
                    var54 = -0.0565354712
                Else
                    var54 = -0.0604620986
                End If
            Else
                var54 = -0.0572612472
            End If
        Else
            If (inputVector(0)) >= (1.3293533) Then
                If (inputVector(4)) < (0.2896104) Then
                    var54 = -0.130322933
                Else
                    var54 = 0.0757076368
                End If
            Else
                If (inputVector(4)) < (0.4875) Then
                    var54 = -0.037118651
                Else
                    var54 = 0.0136464033
                End If
            End If
        End If
    Else
        If (inputVector(6)) >= (2#) Then
            If (inputVector(3)) >= (3.1983657) Then
                var54 = -0.055970937
            Else
                var54 = -0.0603407435
            End If
        Else
            If (inputVector(3)) >= (2.130463) Then
                var54 = -0.0691576377
            Else
                If (inputVector(4)) < (0.30616152) Then
                    var54 = -0.0441660509
                Else
                    var54 = 0.0657476634
                End If
            End If
        End If
    End If
    Dim var55 As Double
    If (inputVector(6)) >= (2#) Then
        If (inputVector(5)) >= (6#) Then
            If (inputVector(3)) >= (1.3563386) Then
                var55 = -0.0564841218
            Else
                If (inputVector(0)) >= (0.7665669) Then
                    var55 = -0.0587897971
                Else
                    var55 = -0.0565002076
                End If
            End If
        Else
            If (inputVector(0)) < (0.8269231) Then
                var55 = -0.0626182258
            Else
                var55 = -0.0593468919
            End If
        End If
    Else
        If (inputVector(4)) < (0.43690476) Then
            If (inputVector(1)) < (3.4436872) Then
                If (inputVector(0)) < (0.9511905) Then
                    var55 = -0.0322444551
                Else
                    var55 = 0.0742312297
                End If
            Else
                If (inputVector(5)) >= (5#) Then
                    var55 = -0.0545997992
                Else
                    var55 = 0.0794685185
                End If
            End If
        Else
            If (inputVector(3)) < (1.9268129) Then
                If (inputVector(0)) < (0.9425185) Then
                    var55 = 0.0179869402
                Else
                    var55 = 0.069379434
                End If
            Else
