Module Model
Function ScoreD5(ByRef inputVector() As Double) As Double()
    Dim var0 As Double
    If (inputVector(6)) >= (3.0) Then
        var0 = 0.149263367
    Else
        If (inputVector(5)) >= (7.0) Then
            If (inputVector(6)) >= (2.0) Then
                If (inputVector(4)) < (0.54029185) Then
                    var0 = 0.079303503
                Else
                    var0 = -0.00651961938
                End If
            Else
                If (inputVector(1)) < (6.158448) Then
                    var0 = -0.047455065
                Else
                    var0 = 0.0442886092
                End If
            End If
        Else
            If (inputVector(3)) >= (1.4687693) Then
                If (inputVector(4)) < (0.70064354) Then
                    var0 = 0.0970160216
                Else
                    var0 = -0.0669105276
                End If
            Else
                If (inputVector(4)) < (0.41220236) Then
                    var0 = -0.0443616174
                Else
                    var0 = -0.0718691573
                End If
            End If
        End If
    End If
    Dim var1 As Double
    If (inputVector(6)) >= (3.0) Then
        var1 = 0.131562799
    Else
        If (inputVector(5)) >= (7.0) Then
            If (inputVector(2)) >= (7.56) Then
                If (inputVector(6)) >= (2.0) Then
                    var1 = 0.0733911172
                Else
                    var1 = 0.0086053228
                End If
            Else
                If (inputVector(6)) >= (2.0) Then
                    var1 = 0.0240708385
                Else
                    var1 = -0.0559720583
                End If
            End If
        Else
            If (inputVector(2)) >= (19.95) Then
                If (inputVector(3)) < (1.1073186) Then
                    var1 = -0.0520583093
                Else
                    var1 = 0.041123338
                End If
            Else
                If (inputVector(2)) < (13.615) Then
                    var1 = -0.0724036247
                Else
                    var1 = -0.0634112731
                End If
            End If
        End If
    End If
    Dim var2 As Double
    If (inputVector(6)) >= (3.0) Then
        var2 = 0.116772927
    Else
        If (inputVector(2)) >= (13.065001) Then
            If (inputVector(6)) >= (2.0) Then
                If (inputVector(1)) < (1.9732143) Then
                    var2 = -0.0592108965
                Else
                    var2 = 0.0720195696
                End If
            Else
                If (inputVector(1)) >= (6.158448) Then
                    var2 = 0.0871212408
                Else
                    var2 = -0.032156501
                End If
            End If
        Else
            If (inputVector(5)) >= (7.0) Then
                If (inputVector(6)) >= (1.0) Then
                    var2 = -0.0352115147
                Else
                    var2 = 0.091581963
                End If
            Else
                If (inputVector(4)) < (0.31389964) Then
                    var2 = -0.044011239
                Else
                    var2 = -0.0684044585
                End If
            End If
        End If
    End If
    Dim var3 As Double
    If (inputVector(2)) >= (19.125) Then
        If (inputVector(6)) >= (2.0) Then
            If (inputVector(0)) < (1.3479278) Then
                If (inputVector(5)) >= (5.0) Then
                    var3 = 0.095467709
                Else
                    var3 = -0.0469877273
                End If
            Else
                If (inputVector(2)) < (20.36) Then
                    var3 = 0.0882752761
                Else
                    var3 = -0.0634844527
                End If
            End If
        Else
            If (inputVector(2)) < (76.345) Then
                If (inputVector(5)) >= (9.0) Then
                    var3 = 0.0673534945
                Else
                    var3 = -0.0364775248
                End If
            Else
                If (inputVector(0)) >= (0.9340477) Then
                    var3 = 0.0985039398
                Else
                    var3 = -0.00246598618
                End If
            End If
        End If
    Else
        If (inputVector(5)) >= (7.0) Then
            If (inputVector(6)) >= (2.0) Then
                If (inputVector(0)) < (1.3470713) Then
                    var3 = 0.00341715524
                Else
                    var3 = 0.0800168365
                End If
            Else
                If (inputVector(6)) >= (1.0) Then
                    var3 = -0.0488780104
                Else
                    var3 = 0.088233307
                End If
            End If
        Else
            If (inputVector(4)) < (0.31389964) Then
                If (inputVector(0)) < (1.2490654) Then
                    var3 = 0.0554965921
                Else
                    var3 = -0.0658622161
                End If
            Else
                var3 = -0.066333577
            End If
        End If
    End If
    Dim var4 As Double
    If (inputVector(3)) >= (1.4646456) Then
        If (inputVector(0)) < (1.3672323) Then
            If (inputVector(1)) < (1.9647114) Then
                var4 = -0.0266132988
            Else
                If (inputVector(4)) < (1.1182771) Then
                    var4 = 0.0932623595
                Else
                    var4 = -0.0237443913
                End If
            End If
        Else
            If (inputVector(3)) < (2.223618) Then
                var4 = -0.0631929785
            Else
                If (inputVector(1)) < (2.2270155) Then
                    var4 = 0
                Else
                    var4 = 0.0851095691
                End If
            End If
        End If
    Else
        If (inputVector(5)) >= (7.0) Then
            If (inputVector(1)) < (9.115873) Then
                If (inputVector(4)) < (0.5053185) Then
                    var4 = 0.0237623397
                Else
                    var4 = -0.0521709695
                End If
            Else
                If (inputVector(4)) >= (0.27321428) Then
                    var4 = 0.0797895342
                Else
                    var4 = -0.050771948
                End If
            End If
        Else
            If (inputVector(0)) < (0.8227564) Then
                If (inputVector(4)) < (0.5945946) Then
                    var4 = -0.0590955429
                Else
                    var4 = 0.0701496303
                End If
            Else
                If (inputVector(6)) >= (3.0) Then
                    var4 = 0.0841030702
                Else
                    var4 = -0.0617307685
                End If
            End If
        End If
    End If
    Dim var5 As Double
    If (inputVector(2)) >= (19.135) Then
        If (inputVector(6)) >= (2.0) Then
            If (inputVector(6)) >= (3.0) Then
                var5 = 0.0908698067
            Else
                If (inputVector(5)) >= (5.0) Then
                    var5 = 0.0597761646
                Else
                    var5 = -0.0550608411
                End If
            End If
        Else
            If (inputVector(2)) < (58.730003) Then
                If (inputVector(0)) >= (1.0008658) Then
                    var5 = -0.0669423565
                Else
                    var5 = 0.0193913728
                End If
            Else
                If (inputVector(0)) >= (1.1638157) Then
                    var5 = 0.103654601
                Else
                    var5 = 0.00295783416
                End If
            End If
        End If
    Else
        If (inputVector(5)) >= (7.0) Then
            If (inputVector(6)) >= (2.0) Then
                If (inputVector(2)) < (2.05) Then
                    var5 = -0.0623207986
                Else
                    var5 = 0.0419450216
                End If
            Else
                If (inputVector(2)) >= (5.1000004) Then
                    var5 = 0.00326941954
                Else
                    var5 = -0.0594182014
                End If
            End If
        Else
            If (inputVector(2)) < (13.59) Then
                var5 = -0.063372314
            Else
                If (inputVector(2)) < (13.639999) Then
                    var5 = 0.165222555
                Else
                    var5 = -0.0539120696
                End If
            End If
        End If
    End If
    Dim var6 As Double
    If (inputVector(2)) >= (19.135) Then
        If (inputVector(2)) < (105.785) Then
            If (inputVector(3)) < (1.4646456) Then
                If (inputVector(3)) < (1.2129612) Then
                    var6 = 0.018877672
                Else
                    var6 = -0.0709489137
                End If
            Else
                If (inputVector(4)) < (0.41785714) Then
                    var6 = 0.0857366547
                Else
                    var6 = 0.02369982
                End If
            End If
        Else
            If (inputVector(0)) >= (1.2061279) Then
                var6 = -0.0551245287
            Else
                If (inputVector(1)) < (2.7778788) Then
                    var6 = -0.0199507531
                Else
                    var6 = 0.0833935067
                End If
            End If
        End If
    Else
        If (inputVector(5)) >= (7.0) Then
            If (inputVector(4)) < (0.5053185) Then
                If (inputVector(2)) < (3.125) Then
                    var6 = -0.0653960034
                Else
                    var6 = 0.0162030682
                End If
            Else
                If (inputVector(2)) >= (17.75) Then
                    var6 = 0.106749475
                Else
                    var6 = -0.0519859493
                End If
            End If
        Else
            If (inputVector(4)) < (0.29642856) Then
                If (inputVector(3)) < (1.1378932) Then
                    var6 = -0.058454372
                Else
                    var6 = 0.112346642
                End If
            Else
                If (inputVector(4)) < (0.4253348) Then
                    var6 = -0.0468046665
                Else
                    var6 = -0.0619716942
                End If
            End If
        End If
    End If
    Dim var7 As Double
    If (inputVector(2)) >= (19.125) Then
        If (inputVector(6)) >= (2.0) Then
            If (inputVector(6)) >= (3.0) Then
                var7 = 0.0810744911
            Else
                If (inputVector(5)) >= (5.0) Then
                    var7 = 0.0562269203
                Else
                    var7 = -0.0521557108
                End If
            End If
        Else
            If (inputVector(3)) < (1.0858445) Then
                If (inputVector(5)) >= (9.0) Then
                    var7 = 0.0877483785
                Else
                    var7 = -0.0655958503
                End If
            Else
                If (inputVector(3)) < (1.212116) Then
                    var7 = 0.0922439694
                Else
                    var7 = 0.00235669268
                End If
            End If
        End If
    Else
        If (inputVector(5)) >= (7.0) Then
            If (inputVector(2)) >= (5.05) Then
                If (inputVector(5)) >= (9.0) Then
                    var7 = 0.0932967812
                Else
                    var7 = 0.00150476885
                End If
            Else
                If (inputVector(6)) >= (2.0) Then
                    var7 = 0.0139733283
                Else
                    var7 = -0.0483727865
                End If
            End If
        Else
            If (inputVector(4)) < (0.31389964) Then
                If (inputVector(3)) < (1.127057) Then
                    var7 = -0.0602676272
                Else
                    var7 = 0.097979553
                End If
            Else
                If (inputVector(5)) >= (5.0) Then
                    var7 = -0.0496611707
                Else
                    var7 = -0.061783053
                End If
            End If
        End If
    End If
    Dim var8 As Double
    If (inputVector(2)) >= (19.135) Then
        If (inputVector(6)) >= (2.0) Then
            If (inputVector(3)) < (1.4830317) Then
                If (inputVector(3)) < (1.2134949) Then
                    var8 = 0.0580774844
                Else
                    var8 = 0
                End If
            Else
                If (inputVector(0)) >= (1.3524239) Then
                    var8 = 0
                Else
                    var8 = 0.0749481544
                End If
            End If
        Else
            If (inputVector(1)) >= (9.45) Then
                If (inputVector(1)) < (18.202702) Then
                    var8 = 0.0925075933
                Else
                    var8 = -0.037202388
                End If
            Else
                If (inputVector(1)) >= (2.0503132) Then
                    var8 = -0.0435956083
                Else
                    var8 = 0.0263364464
                End If
            End If
        End If
    Else
        If (inputVector(3)) >= (1.7431902) Then
            If (inputVector(5)) >= (7.0) Then
                var8 = 0.10778065
            Else
                var8 = -0.0313396081
            End If
        Else
            If (inputVector(5)) >= (8.0) Then
                If (inputVector(3)) >= (0.8378624) Then
                    var8 = -0.0495632179
                Else
                    var8 = 0.0522272959
                End If
            Else
                If (inputVector(6)) >= (3.0) Then
                    var8 = 0.0802846178
                Else
                    var8 = -0.0538542345
                End If
            End If
        End If
    End If
    Dim var9 As Double
    If (inputVector(2)) >= (19.135) Then
        If (inputVector(3)) < (1.0684738) Then
            If (inputVector(6)) >= (2.0) Then
                If (inputVector(1)) < (3.8252096) Then
                    var9 = 0.0660941824
                Else
                    var9 = -0.0034922231
                End If
            Else
                If (inputVector(5)) >= (9.0) Then
                    var9 = 0.11822585
                Else
                    var9 = -0.063426964
                End If
            End If
        Else
            If (inputVector(6)) >= (3.0) Then
                var9 = 0.0738795698
            Else
                If (inputVector(3)) >= (1.2129612) Then
                    var9 = 0
                Else
                    var9 = 0.0699514747
                End If
            End If
        End If
    Else
        If (inputVector(5)) >= (7.0) Then
            If (inputVector(6)) >= (2.0) Then
                If (inputVector(1)) >= (1.6833334) Then
                    var9 = 0.0466178246
                Else
                    var9 = -0.0681349039
                End If
            Else
                If (inputVector(3)) < (1.7590652) Then
                    var9 = -0.0433022194
                Else
                    var9 = 0.0423116349
                End If
            End If
        Else
            If (inputVector(6)) >= (3.0) Then
                var9 = 0.0642164871
            Else
                If (inputVector(3)) < (0.9624206) Then
                    var9 = -0.0597741194
                Else
                    var9 = -0.0484054238
                End If
            End If
        End If
    End If
    Dim var10 As Double
    If (inputVector(2)) >= (19.135) Then
        If (inputVector(3)) < (1.1021705) Then
            If (inputVector(2)) < (20.405) Then
                If (inputVector(3)) < (0.9274603) Then
                    var10 = 0.0742415711
                Else
                    var10 = -0.0499860756
                End If
            Else
                If (inputVector(5)) >= (9.0) Then
                    var10 = 0.0534716025
                Else
                    var10 = -0.0529998243
                End If
            End If
        Else
            If (inputVector(1)) >= (9.45) Then
                var10 = 0.0767603144
            Else
                If (inputVector(0)) < (1.2718894) Then
                    var10 = 0.0447385311
                Else
                    var10 = -0.0246016625
                End If
            End If
        End If
    Else
        If (inputVector(5)) >= (7.0) Then
            If (inputVector(1)) < (6.2178116) Then
                If (inputVector(0)) < (1.610968) Then
                    var10 = -0.0467661731
                Else
                    var10 = 0.0141725382
                End If
            Else
                If (inputVector(0)) < (1.6043034) Then
                    var10 = 0.0551347695
                Else
                    var10 = -0.0567231886
                End If
            End If
        Else
            If (inputVector(4)) < (0.31389964) Then
                If (inputVector(1)) < (2.5448122) Then
                    var10 = -0.056540858
                Else
                    var10 = 0.0863158852
                End If
            Else
                If (inputVector(5)) >= (6.0) Then
                    var10 = -0.0425449125
                Else
                    var10 = -0.0574133955
                End If
            End If
        End If
    End If
    Dim var11 As Double
    If (inputVector(2)) >= (13.065001) Then
        If (inputVector(2)) < (60.075) Then
            If (inputVector(4)) < (0.45264137) Then
                If (inputVector(2)) < (13.715) Then
                    var11 = 0.170888826
                Else
                    var11 = 0.0156386085
                End If
            Else
                If (inputVector(2)) < (36.58) Then
                    var11 = -0.0437369347
                Else
                    var11 = 0.00361478492
                End If
            End If
        Else
            If (inputVector(3)) < (1.075784) Then
                If (inputVector(2)) < (188.5) Then
                    var11 = -0.0596803837
                Else
                    var11 = 0.0533648022
                End If
            Else
                If (inputVector(3)) >= (1.2060573) Then
                    var11 = 0.0481996685
                Else
                    var11 = 0.086769715
                End If
            End If
        End If
    Else
        If (inputVector(5)) >= (7.0) Then
            If (inputVector(6)) >= (2.0) Then
                If (inputVector(3)) >= (0.74052006) Then
                    var11 = 0.0507272892
                Else
                    var11 = -0.0641690418
                End If
            Else
                If (inputVector(3)) < (3.0666676) Then
                    var11 = -0.0454085469
                Else
                    var11 = 0.0252366159
                End If
            End If
        Else
            If (inputVector(4)) < (0.31389964) Then
                If (inputVector(2)) < (10.385) Then
                    var11 = -0.0554712228
                Else
                    var11 = 0.109900333
                End If
            Else
                If (inputVector(5)) >= (6.0) Then
                    var11 = -0.0382446051
                Else
                    var11 = -0.0564128272
                End If
            End If
        End If
    End If
    Dim var12 As Double
    If (inputVector(2)) >= (7.6099997) Then
        If (inputVector(3)) >= (1.4646456) Then
            If (inputVector(4)) < (0.91899633) Then
                If (inputVector(5)) >= (6.0) Then
                    var12 = 0.0622707605
                Else
                    var12 = 0.0227531008
                End If
            Else
                If (inputVector(2)) < (30.12) Then
                    var12 = 0.0485577621
                Else
                    var12 = -0.0470085256
                End If
            End If
        Else
            If (inputVector(4)) < (0.4515174) Then
                If (inputVector(4)) < (0.28958333) Then
                    var12 = -0.062641792
                Else
                    var12 = 0.0384672694
                End If
            Else
                If (inputVector(6)) >= (2.0) Then
                    var12 = 0.0110660372
                Else
                    var12 = -0.0425884835
                End If
            End If
        End If
    Else
        If (inputVector(5)) >= (6.0) Then
            If (inputVector(4)) < (0.5051294) Then
                If (inputVector(4)) < (0.50382733) Then
                    var12 = -0.0104328142
                Else
                    var12 = 0.156268328
                End If
            Else
                If (inputVector(2)) >= (2.05) Then
                    var12 = -0.0285170618
                Else
                    var12 = -0.0590119138
                End If
            End If
        Else
            If (inputVector(4)) < (0.29642856) Then
                If (inputVector(4)) < (0.29007715) Then
                    var12 = -0.0478583165
                Else
                    var12 = 0.143955886
                End If
            Else
                If (inputVector(4)) >= (0.9125483) Then
                    var12 = -0.02099487
                Else
                    var12 = -0.0571534932
                End If
            End If
        End If
    End If
    Dim var13 As Double
    If (inputVector(2)) >= (19.125) Then
        If (inputVector(6)) >= (3.0) Then
            var13 = 0.0655525103
        Else
            If (inputVector(2)) < (21.42) Then
                If (inputVector(1)) < (4.8468227) Then
                    var13 = 0.0690744221
                Else
                    var13 = -0.0167402849
                End If
            Else
                If (inputVector(1)) >= (9.45) Then
                    var13 = 0.0629858002
                Else
                    var13 = -0.00950345956
                End If
            End If
        End If
    Else
        If (inputVector(5)) >= (7.0) Then
            If (inputVector(1)) < (2.6875) Then
                If (inputVector(3)) >= (1.6589394) Then
                    var13 = 0.0826299116
                Else
                    var13 = -0.0508527644
                End If
            Else
                If (inputVector(3)) >= (1.0115801) Then
                    var13 = -0.0435527042
                Else
                    var13 = 0.0340227
                End If
            End If
        Else
            If (inputVector(6)) >= (3.0) Then
                var13 = 0.0519002192
            Else
                If (inputVector(3)) < (0.96431255) Then
                    var13 = -0.0566492155
                Else
                    var13 = -0.0375919566
                End If
            End If
        End If
    End If
    Dim var14 As Double
    If (inputVector(6)) >= (3.0) Then
        var14 = 0.0641327128
    Else
        If (inputVector(2)) >= (13.52) Then
            If (inputVector(5)) >= (8.0) Then
                If (inputVector(2)) < (21.42) Then
                    var14 = 0.081292294
                Else
                    var14 = 0.019151805
                End If
            Else
                If (inputVector(2)) < (13.639999) Then
                    var14 = 0.141065821
                Else
                    var14 = -0.0150603047
                End If
            End If
        Else
            If (inputVector(5)) >= (7.0) Then
                If (inputVector(2)) >= (3.125) Then
                    var14 = 0.0182547271
                Else
                    var14 = -0.0431847386
                End If
            Else
                If (inputVector(2)) < (27.0) Then
                    var14 = -0.0560181327
                Else
                    var14 = -0.0343816578
                End If
            End If
        End If
    End If
    Dim var15 As Double
    If (inputVector(2)) >= (7.56) Then
        If (inputVector(6)) >= (3.0) Then
            var15 = 0.0630110204
        Else
            If (inputVector(1)) < (1.5577952) Then
                var15 = -0.0586873107
            Else
                If (inputVector(5)) >= (5.0) Then
                    var15 = 0.0195563044
                Else
                    var15 = -0.0413110666
                End If
            End If
        End If
    Else
        If (inputVector(5)) >= (6.0) Then
            If (inputVector(2)) < (3.125) Then
                If (inputVector(0)) >= (1.6087964) Then
                    var15 = 0
                Else
                    var15 = -0.0570680164
                End If
            Else
                If (inputVector(1)) < (0.89117646) Then
                    var15 = 0.133700624
                Else
                    var15 = -0.000223401934
                End If
            End If
        Else
            If (inputVector(6)) >= (3.0) Then
                var15 = 0.0463946201
            Else
                If (inputVector(0)) < (1.245732) Then
                    var15 = -0.0426427498
                Else
                    var15 = -0.0551854782
                End If
            End If
        End If
    End If
    Dim var16 As Double
    If (inputVector(6)) >= (2.0) Then
        If (inputVector(3)) >= (0.8861788) Then
            If (inputVector(2)) < (3.935) Then
                var16 = -0.0544860177
            Else
                If (inputVector(0)) >= (0.9466572) Then
                    var16 = 0.0349546149
                Else
                    var16 = 0.0591345392
                End If
            End If
        Else
            If (inputVector(2)) >= (14.05) Then
                If (inputVector(3)) >= (0.77026904) Then
                    var16 = -0.0542156994
                Else
                    var16 = 0.0621683784
                End If
            Else
                If (inputVector(3)) >= (0.83190906) Then
                    var16 = 0
                Else
                    var16 = -0.0569549389
                End If
            End If
        End If
    Else
        If (inputVector(4)) < (0.4362915) Then
            If (inputVector(1)) < (3.2110777) Then
                If (inputVector(0)) < (0.9526675) Then
                    var16 = 0.0333872624
                Else
                    var16 = -0.0580075271
                End If
            Else
                If (inputVector(0)) < (1.4772348) Then
                    var16 = 0.0459040254
                Else
                    var16 = -0.0215329211
                End If
            End If
        Else
            If (inputVector(1)) >= (6.2517624) Then
                If (inputVector(0)) < (1.0332184) Then
                    var16 = 0.0741251856
                Else
                    var16 = -0.0339135192
                End If
            Else
                If (inputVector(3)) >= (1.6428282) Then
                    var16 = 0.0186362695
                Else
                    var16 = -0.0506945737
                End If
            End If
        End If
    End If
    Dim var17 As Double
    If (inputVector(2)) >= (19.135) Then
        If (inputVector(6)) >= (3.0) Then
            var17 = 0.0590140708
        Else
            If (inputVector(5)) >= (8.0) Then
                If (inputVector(4)) < (0.64834666) Then
                    var17 = 0.0470305756
                Else
                    var17 = -0.0579818897
                End If
            Else
                If (inputVector(4)) < (0.6112713) Then
                    var17 = 0.00886466261
                Else
                    var17 = -0.0612431951
                End If
            End If
        End If
    Else
        If (inputVector(5)) >= (7.0) Then
            If (inputVector(0)) < (1.561213) Then
                If (inputVector(6)) >= (1.0) Then
                    var17 = -0.0161470436
                Else
                    var17 = 0.0845194533
                End If
            Else
                If (inputVector(4)) < (0.50643146) Then
                    var17 = 0.0606047474
                Else
                    var17 = -0.0542741902
                End If
            End If
        Else
            If (inputVector(6)) >= (3.0) Then
                var17 = 0.0408783928
            Else
                If (inputVector(4)) < (0.31389964) Then
                    var17 = 0.00866651908
                Else
                    var17 = -0.0507906973
                End If
            End If
        End If
    End If
    Dim var18 As Double
    If (inputVector(2)) >= (13.065001) Then
        If (inputVector(1)) >= (9.25) Then
            If (inputVector(3)) < (1.1142857) Then
                If (inputVector(0)) < (0.71568835) Then
                    var18 = 0.0297114998
                Else
                    var18 = 0
                End If
            Else
                var18 = 0.0650705025
            End If
        Else
            If (inputVector(6)) >= (2.0) Then
                If (inputVector(1)) < (1.9732143) Then
                    var18 = -0.0161928926
                Else
                    var18 = 0.0403085351
                End If
            Else
                If (inputVector(0)) >= (1.0608585) Then
                    var18 = -0.047853291
                Else
                    var18 = 0.00738145877
                End If
            End If
        End If
    Else
        If (inputVector(2)) < (2.08) Then
            var18 = -0.0541460216
        Else
            If (inputVector(3)) >= (1.7431902) Then
                If (inputVector(0)) < (0.7609798) Then
                    var18 = 0.0266872738
                Else
                    var18 = 0.102679126
                End If
            Else
                If (inputVector(1)) < (2.6875) Then
                    var18 = -0.0501522385
                Else
                    var18 = -0.0140625183
                End If
            End If
        End If
    End If
    Dim var19 As Double
    If (inputVector(2)) >= (7.6099997) Then
        If (inputVector(1)) >= (8.779419) Then
            If (inputVector(6)) >= (1.0) Then
                If (inputVector(3)) < (29.657143) Then
                    var19 = 0.0619686916
                Else
                    var19 = -0.0373399369
                End If
            Else
                var19 = 0
            End If
        Else
            If (inputVector(4)) < (0.4328829) Then
                If (inputVector(0)) >= (1.0608585) Then
                    var19 = 0.0011063714
                Else
                    var19 = 0.0520620123
                End If
            Else
                If (inputVector(0)) < (0.862665) Then
                    var19 = 0.031953942
                Else
                    var19 = -0.0246547908
                End If
            End If
        End If
    Else
        If (inputVector(3)) < (0.7865524) Then
            var19 = -0.0539452732
        Else
            If (inputVector(4)) < (0.43631142) Then
                If (inputVector(0)) >= (1.1523201) Then
                    var19 = 0.0470386744
                Else
                    var19 = -0.0326643288
                End If
            Else
                If (inputVector(0)) < (0.8347815) Then
                    var19 = 0.0480715446
                Else
                    var19 = -0.0432210043
                End If
            End If
        End If
    End If
    Dim var20 As Double
    If (inputVector(2)) >= (7.6099997) Then
        If (inputVector(6)) >= (2.0) Then
            If (inputVector(5)) >= (5.0) Then
                If (inputVector(6)) >= (3.0) Then
                    var20 = 0.0575145297
                Else
                    var20 = 0.028103441
                End If
            Else
                var20 = -0.0523671769
            End If
        Else
            If (inputVector(5)) >= (8.0) Then
                If (inputVector(0)) >= (0.94285595) Then
                    var20 = -0.0191101134
                Else
                    var20 = 0.0609559305
                End If
            Else
                If (inputVector(0)) < (1.2128233) Then
                    var20 = -0.00249853777
                Else
                    var20 = -0.0480529927
                End If
            End If
        End If
    Else
        If (inputVector(5)) >= (5.0) Then
            If (inputVector(2)) < (3.125) Then
                If (inputVector(0)) >= (1.6168478) Then
                    var20 = 0
                Else
                    var20 = -0.0545960926
                End If
            Else
                If (inputVector(2)) >= (5.3100004) Then
                    var20 = -0.0548047721
                Else
                    var20 = 0.00922319572
                End If
            End If
        Else
            If (inputVector(4)) < (0.29642856) Then
                If (inputVector(4)) < (0.29007715) Then
                    var20 = -0.0390678756
                Else
                    var20 = 0.153016478
                End If
            Else
                var20 = -0.053062465
            End If
        End If
    End If
    Dim var21 As Double
    If (inputVector(2)) >= (7.6099997) Then
        If (inputVector(6)) >= (3.0) Then
            var21 = 0.0568424724
        Else
            If (inputVector(1)) < (3.4154062) Then
                If (inputVector(1)) < (2.1180556) Then
                    var21 = 0.0197297242
                Else
                    var21 = -0.0420133471
                End If
            Else
                If (inputVector(1)) < (3.419715) Then
                    var21 = 0.160279706
                Else
                    var21 = 0.021825701
                End If
            End If
        End If
    Else
        If (inputVector(3)) < (0.7865524) Then
            var21 = -0.0532261394
        Else
            If (inputVector(3)) < (0.78703576) Then
                var21 = 0.141774848
            Else
                If (inputVector(0)) >= (1.1523201) Then
                    var21 = -0.00618986925
                Else
                    var21 = -0.0427056439
                End If
            End If
        End If
    End If
    Dim var22 As Double
    If (inputVector(5)) >= (5.0) Then
        If (inputVector(6)) >= (2.0) Then
            If (inputVector(6)) >= (3.0) Then
                var22 = 0.0572988577
            Else
                If (inputVector(2)) < (2.08) Then
                    var22 = -0.0486859754
                Else
                    var22 = 0.0197524056
                End If
            End If
        Else
            If (inputVector(5)) >= (9.0) Then
                If (inputVector(2)) >= (4.425) Then
                    var22 = 0.054353971
                Else
                    var22 = -0.044319883
                End If
            Else
                If (inputVector(2)) < (3.125) Then
                    var22 = -0.0523565374
                Else
                    var22 = -0.00870966166
                End If
            End If
        End If
    Else
        If (inputVector(2)) >= (41.114998) Then
            If (inputVector(5)) >= (4.0) Then
                If (inputVector(2)) < (202.11) Then
                    var22 = -0.0270968117
                Else
                    var22 = 0.0123316292
                End If
            Else
                var22 = 0.0631897971
            End If
        Else
            var22 = -0.0529982448
        End If
    End If
    Dim var23 As Double
    If (inputVector(2)) < (7.56) Then
        If (inputVector(5)) >= (7.0) Then
            If (inputVector(1)) < (2.9176793) Then
                If (inputVector(1)) < (2.6875) Then
                    var23 = -0.0301980115
                Else
                    var23 = 0.0971783623
                End If
            Else
                var23 = -0.0555267222
            End If
        Else
            var23 = -0.0524850264
        End If
    Else
        If (inputVector(2)) >= (76.25) Then
            If (inputVector(1)) < (5.9136653) Then
                If (inputVector(1)) < (4.005102) Then
                    var23 = 0.0524164438
                Else
                    var23 = -0.017862577
                End If
            Else
                If (inputVector(4)) < (0.83928573) Then
                    var23 = 0.0611922145
                Else
                    var23 = 0
                End If
            End If
        Else
            If (inputVector(1)) >= (1.7992742) Then
                If (inputVector(1)) < (1.8181818) Then
                    var23 = 0.584115446
                Else
                    var23 = 0.000922899344
                End If
            Else
                If (inputVector(4)) < (0.32559523) Then
                    var23 = 0.0227077622
                Else
                    var23 = -0.0574393049
                End If
            End If
        End If
    End If
    Dim var24 As Double
    If (inputVector(2)) >= (7.6099997) Then
        If (inputVector(5)) >= (5.0) Then
            If (inputVector(6)) >= (2.0) Then
                If (inputVector(1)) < (1.9400454) Then
                    var24 = -0.0157174021
                Else
                    var24 = 0.0399171412
                End If
            Else
                If (inputVector(0)) < (1.0608585) Then
                    var24 = 0.0278433654
                Else
                    var24 = -0.0151476962
                End If
            End If
        Else
            If (inputVector(2)) < (41.114998) Then
                var24 = -0.0516940728
            Else
                If (inputVector(0)) >= (1.2032869) Then
                    var24 = -0.0217445102
                Else
                    var24 = 0.0455406755
                End If
            End If
        End If
    Else
        If (inputVector(5)) >= (5.0) Then
            If (inputVector(2)) < (3.125) Then
                If (inputVector(0)) < (0.80966073) Then
                    var24 = 0.101341881
                Else
                    var24 = -0.0530450903
                End If
            Else
                If (inputVector(0)) < (1.1522303) Then
                    var24 = -0.0306468885
                Else
                    var24 = 0.0187048241
                End If
            End If
        Else
            If (inputVector(4)) < (0.29642856) Then
                If (inputVector(0)) < (1.2547522) Then
                    var24 = 0.144286424
                Else
                    var24 = -0.0260537807
                End If
            Else
                var24 = -0.0519702695
            End If
        End If
    End If
    Dim var25 As Double
    var25 = Math.Exp((((((((((((((((((((((((((0.5) + (var0)) + (var1)) + (var2)) + (var3)) + (var4)) + (var5)) + (var6)) + (var7)) + (var8)) + (var9)) + (var10)) + (var11)) + (var12)) + (var13)) + (var14)) + (var15)) + (var16)) + (var17)) + (var18)) + (var19)) + (var20)) + (var21)) + (var22)) + (var23)) + (var24))
    Dim var26 As Double
    If (inputVector(6)) >= (2.0) Then
        If (inputVector(2)) >= (19.95) Then
            If (inputVector(3)) < (1.4608275) Then
                If (inputVector(1)) < (1.9660194) Then
                    var26 = 0.129281029
                Else
                    var26 = -0.0142618408
                End If
            Else
                If (inputVector(0)) >= (1.3524239) Then
                    var26 = 0.0370828137
                Else
                    var26 = -0.0679242164
                End If
            End If
        Else
            If (inputVector(5)) >= (7.0) Then
                If (inputVector(3)) >= (0.9429762) Then
                    var26 = -0.00192271254
                Else
                    var26 = 0.0950332806
                End If
            Else
                If (inputVector(6)) >= (3.0) Then
                    var26 = -0.0523821488
                Else
                    var26 = 0.145159647
                End If
            End If
        End If
    Else
        If (inputVector(6)) >= (1.0) Then
            var26 = -0.0727803856
        Else
            If (inputVector(5)) >= (7.0) Then
                If (inputVector(0)) >= (0.88106287) Then
                    var26 = -0.0685273856
                Else
                    var26 = 0
                End If
            Else
                var26 = 0.0932256058
            End If
        End If
    End If
    Dim var27 As Double
    If (inputVector(2)) >= (27.48) Then
        If (inputVector(6)) >= (3.0) Then
            var27 = -0.0714874417
        Else
            If (inputVector(1)) >= (18.202702) Then
                var27 = 0.0371824279
            Else
                If (inputVector(6)) >= (2.0) Then
                    var27 = -0.00611139601
                Else
                    var27 = -0.0697656944
                End If
            End If
        End If
    Else
        If (inputVector(6)) >= (2.0) Then
            If (inputVector(5)) >= (7.0) Then
                If (inputVector(3)) >= (0.7363602) Then
                    var27 = 0.0086084092
                Else
                    var27 = 0.138206616
                End If
            Else
                If (inputVector(6)) >= (3.0) Then
                    var27 = -0.0491383485
                Else
                    var27 = 0.130341098
                End If
            End If
        Else
            If (inputVector(3)) >= (2.7584534) Then
                var27 = 0
            Else
                If (inputVector(6)) >= (1.0) Then
                    var27 = -0.0701508224
                Else
                    var27 = -0.00239672395
                End If
            End If
        End If
    End If
    Dim var28 As Double
    If (inputVector(2)) >= (27.400002) Then
        If (inputVector(6)) >= (3.0) Then
            var28 = -0.0689685866
        Else
            If (inputVector(6)) >= (2.0) Then
                If (inputVector(0)) < (1.2599846) Then
                    var28 = -0.00165659655
                Else
                    var28 = 0.135163352
                End If
            Else
                If (inputVector(4)) < (0.28308308) Then
                    var28 = 0
                Else
                    var28 = -0.0671989471
                End If
            End If
        End If
    Else
        If (inputVector(6)) >= (2.0) Then
            If (inputVector(5)) >= (7.0) Then
                If (inputVector(2)) < (2.05) Then
                    var28 = 0.129942223
                Else
                    var28 = 0.0107006459
                End If
            Else
                If (inputVector(0)) < (0.6054663) Then
                    var28 = -0.0452983528
                Else
                    var28 = 0.118895069
                End If
            End If
        Else
            If (inputVector(6)) >= (1.0) Then
                If (inputVector(2)) >= (26.4) Then
                    var28 = 0
                Else
                    var28 = -0.0678496286
                End If
            Else
                If (inputVector(0)) >= (0.9280223) Then
                    var28 = -0.0487943701
                Else
                    var28 = 0.109645128
                End If
            End If
        End If
    End If
    Dim var29 As Double
    If (inputVector(6)) >= (2.0) Then
        If (inputVector(6)) >= (3.0) Then
            var29 = -0.067167528
        Else
            If (inputVector(5)) >= (7.0) Then
                If (inputVector(4)) < (0.5254183) Then
                    var29 = -0.00371074909
                Else
                    var29 = 0.0607937351
                End If
            Else
                If (inputVector(3)) >= (1.4687693) Then
                    var29 = -0.00568663515
                Else
                    var29 = 0.10389439
                End If
            End If
        End If
    Else
        If (inputVector(6)) >= (1.0) Then
            If (inputVector(4)) >= (1.4471354) Then
                var29 = 0
            Else
                var29 = -0.0656375661
            End If
        Else
            If (inputVector(4)) < (0.77837837) Then
                If (inputVector(0)) >= (0.8793909) Then
                    var29 = -0.0578029156
                Else
                    var29 = 0.0724454001
                End If
            Else
                var29 = 0.105433874
            End If
        End If
    End If
    Dim var30 As Double
    If (inputVector(2)) >= (33.25) Then
        If (inputVector(0)) < (1.478569) Then
            If (inputVector(4)) < (1.4755138) Then
                var30 = -0.0557205342
            Else
                var30 = 0
            End If
        Else
            If (inputVector(4)) < (0.6223959) Then
                If (inputVector(2)) < (60.850002) Then
                    var30 = 0
                Else
                    var30 = 0.0764536783
                End If
            Else
                var30 = -0.0533417873
            End If
        End If
    Else
        If (inputVector(0)) >= (1.0368602) Then
            If (inputVector(2)) < (6.775) Then
                If (inputVector(4)) < (0.4502604) Then
                    var30 = -0.00952283293
                Else
                    var30 = -0.0325254984
                End If
            Else
                If (inputVector(0)) < (1.5306526) Then
                    var30 = -0.00847483706
                Else
                    var30 = -0.0389701873
                End If
            End If
        Else
            If (inputVector(4)) < (0.11873752) Then
                If (inputVector(3)) < (0.7839196) Then
                    var30 = -0.0124276048
                Else
                    var30 = 0.0761297271
                End If
            Else
                If (inputVector(3)) < (0.6251997) Then
                    var30 = -0.00526218722
                Else
                    var30 = -0.0467412286
                End If
            End If
        End If
    End If
    Dim var31 As Double
    If (inputVector(6)) >= (2.0) Then
        If (inputVector(2)) >= (20.155) Then
            If (inputVector(3)) < (1.0202544) Then
                If (inputVector(2)) < (21.0) Then
                    var31 = -0.0495772026
                Else
                    var31 = 0.120810285
                End If
            Else
                If (inputVector(6)) >= (3.0) Then
                    var31 = -0.0640156418
                Else
                    var31 = -0.0178325381
                End If
            End If
        Else
            If (inputVector(3)) >= (0.9497706) Then
                If (inputVector(2)) < (3.5700002) Then
                    var31 = 0.102176838
                Else
                    var31 = 0.012224461
                End If
            Else
                If (inputVector(1)) >= (8.821428) Then
                    var31 = -0.0377162397
                Else
                    var31 = 0.0950887203
                End If
            End If
        End If
    Else
        If (inputVector(6)) >= (1.0) Then
            If (inputVector(3)) >= (3.1661906) Then
                var31 = 0
            Else
                var31 = -0.0620074682
            End If
        Else
            If (inputVector(4)) < (0.79781604) Then
                If (inputVector(2)) >= (75.104996) Then
                    var31 = 0.0351541601
                Else
                    var31 = -0.045955088
                End If
            Else
                var31 = 0.100510143
            End If
        End If
    End If
    Dim var32 As Double
    If (inputVector(0)) >= (1.0507147) Then
        If (inputVector(5)) >= (10.0) Then
            var32 = 0.083468549
        Else
            If (inputVector(2)) >= (67.350006) Then
                If (inputVector(3)) < (0.9639883) Then
                    var32 = 0.0691472441
                Else
                    var32 = -0.0554846898
                End If
            Else
                If (inputVector(2)) >= (36.035) Then
                    var32 = 0.0148121109
                Else
                    var32 = -0.024442805
                End If
            End If
        End If
    Else
        If (inputVector(2)) < (796.58) Then
            If (inputVector(4)) >= (0.10559407) Then
                If (inputVector(3)) >= (0.6251997) Then
                    var32 = -0.048849728
                Else
                    var32 = -0.0158698838
                End If
            Else
                If (inputVector(2)) < (0.14) Then
                    var32 = -0.0354617685
                Else
                    var32 = 0.0233020205
                End If
            End If
        Else
            If (inputVector(5)) >= (9.0) Then
                var32 = 0.0745032877
            Else
                If (inputVector(4)) < (0.49054053) Then
                    var32 = 0
                Else
                    var32 = -0.037531238
                End If
            End If
        End If
    End If
    Dim var33 As Double
    If (inputVector(0)) >= (1.0474782) Then
        If (inputVector(6)) >= (2.0) Then
            If (inputVector(2)) >= (7.6499996) Then
                If (inputVector(2)) < (66.95) Then
                    var33 = 0.0314004906
                Else
                    var33 = -0.0397427045
                End If
            Else
                If (inputVector(6)) >= (3.0) Then
                    var33 = -0.0432441235
                Else
                    var33 = 0.0915870517
                End If
            End If
        Else
            If (inputVector(4)) < (0.27950937) Then
                If (inputVector(0)) < (1.2139724) Then
                    var33 = -0.00149392593
                Else
                    var33 = 0.133245796
                End If
            Else
                If (inputVector(3)) >= (3.0724025) Then
                    var33 = 0
                Else
                    var33 = -0.0591144748
                End If
            End If
        End If
    Else
        If (inputVector(6)) >= (2.0) Then
            If (inputVector(3)) >= (0.9602228) Then
                If (inputVector(6)) >= (3.0) Then
                    var33 = -0.0614581071
                Else
                    var33 = -0.00685644476
                End If
            Else
                If (inputVector(0)) < (0.80966073) Then
                    var33 = -0.0206429493
                Else
                    var33 = 0.0885790735
                End If
            End If
        Else
            If (inputVector(6)) >= (1.0) Then
                If (inputVector(3)) >= (1.9426606) Then
                    var33 = 0
                Else
                    var33 = -0.0614884906
                End If
            Else
                var33 = 0.103504062
            End If
        End If
    End If
    Dim var34 As Double
    If (inputVector(6)) >= (2.0) Then
        If (inputVector(6)) >= (3.0) Then
            var34 = -0.0610142536
        Else
            If (inputVector(5)) >= (7.0) Then
                If (inputVector(1)) >= (2.6794872) Then
                    var34 = -0.00706026284
                Else
                    var34 = 0.0434175134
                End If
            Else
                If (inputVector(0)) < (0.73459303) Then
                    var34 = -0.023666529
                Else
                    var34 = 0.0829478651
                End If
            End If
        End If
    Else
        If (inputVector(6)) >= (1.0) Then
            var34 = -0.0583123975
        Else
            If (inputVector(2)) < (83.479996) Then
                If (inputVector(1)) < (2.7119846) Then
                    var34 = 0.052471932
                Else
                    var34 = -0.0516814999
                End If
            Else
                If (inputVector(0)) >= (0.9710276) Then
                    var34 = -0.0464013778
                Else
                    var34 = 0.0956067145
                End If
            End If
        End If
    End If
    Dim var35 As Double
    If (inputVector(6)) >= (2.0) Then
        If (inputVector(3)) >= (0.9979592) Then
            If (inputVector(6)) >= (3.0) Then
                var35 = -0.0596286543
            Else
                If (inputVector(5)) >= (6.0) Then
                    var35 = 0.000482227188
                Else
                    var35 = 0.0921755061
                End If
            End If
        Else
            If (inputVector(5)) >= (7.0) Then
                If (inputVector(1)) < (2.6794872) Then
                    var35 = 0.0590264462
                Else
                    var35 = 0
                End If
            Else
                var35 = 0.0845641419
            End If
        End If
    Else
        If (inputVector(0)) < (0.43708333) Then
            If (inputVector(1)) < (6.4166665) Then
                var35 = -0.00275172363
            Else
                var35 = 0
            End If
        Else
            If (inputVector(6)) >= (1.0) Then
                var35 = -0.0577987693
            Else
                If (inputVector(2)) < (83.479996) Then
                    var35 = -0.0482295156
                Else
                    var35 = 0.0858150795
                End If
            End If
        End If
    End If
    Dim var36 As Double
    If (inputVector(2)) >= (67.93) Then
        If (inputVector(6)) >= (1.0) Then
            If (inputVector(3)) < (0.9696641) Then
                If (inputVector(0)) >= (0.9238095) Then
                    var36 = 0.0616064034
                Else
                    var36 = -0.0214724317
                End If
            Else
                If (inputVector(4)) < (1.3632812) Then
                    var36 = -0.0531463437
                Else
                    var36 = 0
                End If
            End If
        Else
            var36 = 0.0148457335
        End If
    Else
        If (inputVector(6)) >= (2.0) Then
            If (inputVector(3)) >= (1.4687693) Then
                If (inputVector(4)) < (0.49594593) Then
                    var36 = -0.0511393547
                Else
                    var36 = 0
                End If
            Else
                If (inputVector(0)) < (0.8313008) Then
                    var36 = -0.01195304
                Else
                    var36 = 0.0646079704
                End If
            End If
        Else
            If (inputVector(3)) >= (3.016839) Then
                var36 = 0
            Else
                If (inputVector(6)) >= (1.0) Then
                    var36 = -0.0557172187
                Else
                    var36 = -0.0101772081
                End If
            End If
        End If
    End If
    Dim var37 As Double
    If (inputVector(6)) >= (2.0) Then
        If (inputVector(6)) >= (3.0) Then
            var37 = -0.0581630841
        Else
            If (inputVector(5)) >= (7.0) Then
                If (inputVector(0)) < (1.5315332) Then
                    var37 = 0.0338761918
                Else
                    var37 = -0.0306896027
                End If
            Else
                If (inputVector(0)) < (0.7375) Then
                    var37 = -0.0387730561
                Else
                    var37 = 0.0712793469
                End If
            End If
        End If
    Else
        If (inputVector(6)) >= (1.0) Then
            If (inputVector(3)) >= (3.1661906) Then
                var37 = 0
            Else
                var37 = -0.0550418869
            End If
        Else
            If (inputVector(1)) >= (3.972549) Then
                var37 = 0.0747045502
            Else
                If (inputVector(5)) >= (7.0) Then
                    var37 = -0.0299231652
                Else
                    var37 = 0.0808656961
                End If
            End If
        End If
    End If
    Dim var38 As Double
    If (inputVector(6)) >= (2.0) Then
        If (inputVector(6)) >= (3.0) Then
            var38 = -0.0567071624
        Else
            If (inputVector(2)) >= (9.75) Then
                If (inputVector(4)) < (0.5285715) Then
                    var38 = -0.0140194139
                Else
                    var38 = 0.0607760027
                End If
            Else
                If (inputVector(2)) >= (2.08) Then
                    var38 = 0.0435835868
                Else
                    var38 = 0.0738372654
                End If
            End If
        End If
    Else
        If (inputVector(4)) >= (1.4755138) Then
            var38 = 0
        Else
            If (inputVector(3)) >= (3.1661906) Then
                var38 = 0
            Else
                If (inputVector(6)) >= (1.0) Then
                    var38 = -0.0529667623
                Else
                    var38 = -0.0228239726
                End If
            End If
        End If
    End If
    Dim var39 As Double
    If (inputVector(0)) >= (1.0474782) Then
        If (inputVector(6)) >= (2.0) Then
            If (inputVector(2)) >= (7.6499996) Then
                If (inputVector(1)) < (3.4653466) Then
                    var39 = 0.0698113739
                Else
                    var39 = -0.026449278
                End If
            Else
                If (inputVector(1)) >= (0.882491) Then
                    var39 = 0.0750357807
                Else
                    var39 = 0.0241426509
                End If
            End If
        Else
            If (inputVector(3)) >= (3.1661906) Then
                var39 = 0
            Else
                If (inputVector(3)) >= (0.6611011) Then
                    var39 = -0.0535464399
                Else
                    var39 = -0.0419089012
                End If
            End If
        End If
    Else
        If (inputVector(6)) >= (2.0) Then
            If (inputVector(3)) >= (0.9578047) Then
                If (inputVector(6)) >= (3.0) Then
                    var39 = -0.0554186217
                Else
                    var39 = -0.0131612262
                End If
            Else
                If (inputVector(6)) >= (3.0) Then
                    var39 = -0.0409606025
                Else
                    var39 = 0.0633339733
                End If
            End If
        Else
            If (inputVector(6)) >= (1.0) Then
                If (inputVector(2)) >= (133.95) Then
                    var39 = 0
                Else
                    var39 = -0.0554589145
                End If
            Else
                If (inputVector(3)) < (0.9671093) Then
                    var39 = -0.0470781066
                Else
                    var39 = 0.00193974737
                End If
            End If
        End If
    End If
    Dim var40 As Double
    If (inputVector(2)) >= (33.6) Then
        If (inputVector(6)) >= (3.0) Then
            var40 = -0.0545356981
        Else
            If (inputVector(6)) >= (2.0) Then
                If (inputVector(1)) < (6.642857) Then
                    var40 = 0.0223649815
                Else
                    var40 = -0.035035938
                End If
            Else
                var40 = -0.0520209856
            End If
        End If
    Else
        If (inputVector(6)) >= (2.0) Then
            If (inputVector(5)) >= (7.0) Then
                If (inputVector(1)) >= (1.6806879) Then
                    var40 = -0.00115716329
                Else
                    var40 = 0.0844242498
                End If
            Else
                If (inputVector(6)) >= (3.0) Then
                    var40 = -0.0403425023
                Else
                    var40 = 0.0639102831
                End If
            End If
        Else
            If (inputVector(6)) >= (1.0) Then
                var40 = -0.0516022444
            Else
                If (inputVector(2)) >= (5.38) Then
                    var40 = -0.0370354056
                Else
                    var40 = 0.0867858604
                End If
            End If
        End If
    End If
    Dim var41 As Double
    If (inputVector(6)) >= (2.0) Then
        If (inputVector(5)) >= (7.0) Then
            If (inputVector(1)) >= (2.6794872) Then
                If (inputVector(6)) >= (3.0) Then
                    var41 = -0.0537582897
                Else
                    var41 = -0.016345229
                End If
            Else
                If (inputVector(4)) < (0.4452381) Then
                    var41 = -0.00416057743
                Else
                    var41 = 0.0683958828
                End If
            End If
        Else
            If (inputVector(3)) >= (1.4532356) Then
                If (inputVector(0)) < (1.1987932) Then
                    var41 = -0.0396020822
                Else
                    var41 = 0.0386714041
                End If
            Else
                If (inputVector(6)) >= (3.0) Then
                    var41 = -0.0367039964
                Else
                    var41 = 0.0619247556
                End If
            End If
        End If
    Else
        If (inputVector(3)) >= (3.0724025) Then
            var41 = 0
        Else
            If (inputVector(3)) >= (0.6602652) Then
                If (inputVector(4)) < (0.28169644) Then
                    var41 = -0.00729130534
                Else
                    var41 = -0.0524897948
                End If
            Else
                If (inputVector(6)) >= (1.0) Then
                    var41 = -0.0437258147
                Else
                    var41 = 0.0812741593
                End If
            End If
        End If
    End If
    Dim var42 As Double
    If (inputVector(6)) >= (2.0) Then
        If (inputVector(6)) >= (3.0) Then
            var42 = -0.0543352365
        Else
            If (inputVector(5)) >= (7.0) Then
                If (inputVector(2)) < (2.05) Then
                    var42 = 0.0745855048
                Else
                    var42 = -0.00682413206
                End If
            Else
                If (inputVector(2)) >= (13.565001) Then
                    var42 = 0.00157262187
                Else
                    var42 = 0.0650295988
                End If
            End If
        End If
    Else
        If (inputVector(4)) >= (1.5280879) Then
            var42 = 0
        Else
            If (inputVector(6)) >= (1.0) Then
                var42 = -0.0499630719
            Else
                If (inputVector(0)) >= (0.9280223) Then
                    var42 = -0.0511971824
                Else
                    var42 = 0.0298214387
                End If
            End If
        End If
    End If
    Dim var43 As Double
    If (inputVector(6)) >= (2.0) Then
        If (inputVector(6)) >= (3.0) Then
            var43 = -0.0535309575
        Else
            If (inputVector(2)) >= (19.95) Then
                If (inputVector(2)) < (20.369999) Then
                    var43 = -0.0685146749
                Else
                    var43 = 0.00657049939
                End If
            Else
                If (inputVector(4)) < (0.5363856) Then
                    var43 = 0.0280267633
                Else
                    var43 = 0.0607195869
                End If
            End If
        End If
    Else
        If (inputVector(6)) >= (1.0) Then
            If (inputVector(4)) >= (1.5280879) Then
                var43 = 0
            Else
                var43 = -0.0483123027
            End If
        Else
            If (inputVector(2)) >= (5.38) Then
                If (inputVector(0)) < (2.9402995) Then
                    var43 = -0.048870977
                Else
                    var43 = 0
                End If
            Else
                var43 = 0.0826032683
            End If
        End If
    End If
    Dim var44 As Double
    If (inputVector(6)) >= (2.0) Then
        If (inputVector(6)) >= (3.0) Then
            var44 = -0.0528878048
        Else
            If (inputVector(4)) < (0.4430502) Then
                If (inputVector(4)) < (0.32492256) Then
                    var44 = 0.0837674364
                Else
                    var44 = -0.00594829721
                End If
            Else
                If (inputVector(2)) >= (87.55) Then
                    var44 = -0.0351963341
                Else
                    var44 = 0.0504002571
                End If
            End If
        End If
    Else
        If (inputVector(6)) >= (1.0) Then
            If (inputVector(4)) >= (1.5280879) Then
                var44 = 0
            Else
                If (inputVector(4)) < (0.29940477) Then
                    var44 = -0.0241057035
                Else
                    var44 = -0.0484134257
                End If
            End If
        Else
            If (inputVector(0)) >= (0.9280223) Then
                If (inputVector(1)) < (2.7257938) Then
                    var44 = 0.0552746467
                Else
                    var44 = -0.0576468706
                End If
            Else
                var44 = 0.0777823031
            End If
        End If
    End If
    Dim var45 As Double
    If (inputVector(2)) >= (68.11) Then
        If (inputVector(3)) < (0.9603009) Then
            If (inputVector(4)) < (0.57738096) Then
                var45 = 0.087995939
            Else
                var45 = -0.0169208087
            End If
        Else
            If (inputVector(6)) >= (1.0) Then
                var45 = -0.0489497222
            Else
                If (inputVector(1)) < (16.0) Then
                    var45 = 0.00998675264
                Else
                    var45 = -0.0248874705
                End If
            End If
        End If
    Else
        If (inputVector(2)) >= (61.89) Then
            var45 = 0.0944339409
        Else
            If (inputVector(6)) >= (2.0) Then
                If (inputVector(5)) >= (7.0) Then
                    var45 = 0
                Else
                    var45 = 0.0538749285
                End If
            Else
                If (inputVector(3)) >= (3.016839) Then
                    var45 = 0
                Else
                    var45 = -0.0453865528
                End If
            End If
        End If
    End If
    Dim var46 As Double
    If (inputVector(6)) >= (2.0) Then
        If (inputVector(2)) >= (19.95) Then
            If (inputVector(2)) < (20.369999) Then
                If (inputVector(1)) < (5.865302) Then
                    var46 = -0.0762460455
                Else
                    var46 = 0
                End If
            Else
                If (inputVector(6)) >= (3.0) Then
                    var46 = -0.051183667
                Else
                    var46 = 0.00431355881
                End If
            End If
        Else
            If (inputVector(0)) < (0.8313008) Then
                If (inputVector(4)) < (0.62297297) Then
                    var46 = 0.0643487647
                Else
                    var46 = -0.0677615628
                End If
            Else
                If (inputVector(0)) < (1.564611) Then
                    var46 = 0.0642114878
                Else
                    var46 = 0.0196875613
                End If
            End If
        End If
    Else
        If (inputVector(3)) < (0.6602652) Then
            If (inputVector(4)) < (0.30032176) Then
                var46 = 0.205121502
            Else
                If (inputVector(1)) >= (5.505009) Then
                    var46 = 0.0454792343
                Else
                    var46 = -0.0353240632
                End If
            End If
        Else
            If (inputVector(4)) < (0.28169644) Then
                If (inputVector(4)) < (0.27257884) Then
                    var46 = -0.0332959518
                Else
                    var46 = 0.0614150353
                End If
            Else
                If (inputVector(6)) >= (1.0) Then
                    var46 = -0.0493111908
                Else
                    var46 = -0.0230584685
                End If
            End If
        End If
    End If
    Dim var47 As Double
    If (inputVector(3)) < (0.6602652) Then
        If (inputVector(4)) >= (0.3011905) Then
            If (inputVector(2)) < (14.950001) Then
                If (inputVector(0)) < (1.6044914) Then
                    var47 = 0
                Else
                    var47 = -0.0188865885
                End If
            Else
                If (inputVector(3)) < (0.5583708) Then
                    var47 = 0
                Else
                    var47 = 0.0370237939
                End If
            End If
        Else
            var47 = 0.08405862
        End If
    Else
        If (inputVector(3)) >= (1.4566432) Then
            If (inputVector(2)) < (20.215) Then
                If (inputVector(4)) < (0.38229167) Then
                    var47 = 0.0986147821
                Else
                    var47 = -0.0143850446
                End If
            Else
                If (inputVector(4)) < (1.4755138) Then
                    var47 = -0.0429056585
                Else
                    var47 = 0
                End If
            End If
        Else
            If (inputVector(0)) >= (0.8001663) Then
                If (inputVector(3)) >= (1.2285582) Then
                    var47 = 0.0189591721
                Else
                    var47 = -0.0176569615
                End If
            Else
                If (inputVector(4)) >= (0.37630206) Then
                    var47 = -0.0431175083
                Else
                    var47 = -0.0142226489
                End If
            End If
        End If
    End If
    Dim var48 As Double
    If (inputVector(6)) >= (2.0) Then
        If (inputVector(6)) >= (3.0) Then
            var48 = -0.052382376
        Else
            If (inputVector(0)) >= (0.92347974) Then
                If (inputVector(2)) >= (19.95) Then
                    var48 = 0
                Else
                    var48 = 0.0538868085
                End If
            Else
                If (inputVector(5)) >= (7.0) Then
                    var48 = -0.0265777316
                Else
                    var48 = 0.0354336686
                End If
            End If
        End If
    Else
        If (inputVector(6)) >= (1.0) Then
            If (inputVector(2)) >= (133.95) Then
                If (inputVector(2)) < (180.5) Then
                    var48 = 0.144893274
                Else
                    var48 = -0.0159268323
                End If
            Else
                If (inputVector(0)) >= (1.3497648) Then
                    var48 = -0.0364710055
                Else
                    var48 = -0.0479749925
                End If
            End If
        Else
            If (inputVector(2)) < (83.479996) Then
                If (inputVector(2)) < (5.38) Then
                    var48 = 0
                Else
                    var48 = -0.0366349183
                End If
            Else
                var48 = 0.0671379715
            End If
        End If
    End If
    Dim var49 As Double
    If (inputVector(0)) >= (0.810313) Then
        If (inputVector(6)) >= (2.0) Then
            If (inputVector(4)) < (0.5363856) Then
                If (inputVector(2)) < (7.6) Then
                    var49 = 0.0475960448
                Else
                    var49 = -0.00674085692
                End If
            Else
                If (inputVector(6)) >= (3.0) Then
                    var49 = -0.0348064341
                Else
                    var49 = 0.0655446276
                End If
            End If
        Else
            If (inputVector(4)) < (0.29642856) Then
                If (inputVector(1)) < (2.454706) Then
                    var49 = 0.0594001077
                Else
                    var49 = -0.0161411967
                End If
            Else
                If (inputVector(1)) < (0.8800653) Then
                    var49 = -0.0124925887
                Else
                    var49 = -0.0433888994
                End If
            End If
        End If
    Else
        If (inputVector(6)) >= (2.0) Then
            If (inputVector(4)) >= (0.39054054) Then
                If (inputVector(2)) >= (2.0149999) Then
                    var49 = -0.0477673635
                Else
                    var49 = 0.0289919879
                End If
            Else
                If (inputVector(6)) >= (3.0) Then
                    var49 = -0.0125339767
                Else
                    var49 = 0.070350796
                End If
            End If
        Else
            If (inputVector(6)) >= (1.0) Then
                If (inputVector(4)) >= (1.4755138) Then
                    var49 = 0
                Else
                    var49 = -0.0511031635
                End If
            Else
                If (inputVector(1)) < (4.5416017) Then
                    var49 = 0
                Else
                    var49 = 0.0641499013
                End If
            End If
        End If
    End If
    Dim var50 As Double
    If (inputVector(0)) >= (1.0474782) Then
        If (inputVector(6)) >= (2.0) Then
            If (inputVector(4)) < (0.4126563) Then
                If (inputVector(2)) < (9.65) Then
                    var50 = 0.0620514266
                Else
                    var50 = -0.032803081
                End If
            Else
                If (inputVector(1)) >= (8.8949585) Then
                    var50 = -0.0327009745
                Else
                    var50 = 0.0567757897
                End If
            End If
        Else
            If (inputVector(4)) < (0.29940477) Then
                If (inputVector(1)) < (2.4433613) Then
                    var50 = 0.328313142
                Else
                    var50 = -0.0304946806
                End If
            Else
                If (inputVector(2)) >= (82.45) Then
                    var50 = 0
                Else
                    var50 = -0.0422775112
                End If
            End If
        End If
    Else
        If (inputVector(6)) >= (2.0) Then
            If (inputVector(3)) >= (0.9578047) Then
                If (inputVector(1)) >= (2.075683) Then
                    var50 = -0.0123627018
                Else
                    var50 = -0.0561583154
                End If
            Else
                If (inputVector(0)) < (0.80966073) Then
                    var50 = -0.0286043473
                Else
                    var50 = 0.0606747828
                End If
            End If
        Else
            If (inputVector(6)) >= (1.0) Then
                var50 = -0.0518262759
            Else
                If (inputVector(0)) >= (0.9418007) Then
                    var50 = -0.0483351871
                Else
                    var50 = 0.0371003859
                End If
            End If
        End If
    End If
    Dim var51 As Double
    var51 = Math.Exp((((((((((((((((((((((((((0.5) + (var26)) + (var27)) + (var28)) + (var29)) + (var30)) + (var31)) + (var32)) + (var33)) + (var34)) + (var35)) + (var36)) + (var37)) + (var38)) + (var39)) + (var40)) + (var41)) + (var42)) + (var43)) + (var44)) + (var45)) + (var46)) + (var47)) + (var48)) + (var49)) + (var50))
    Dim var52 As Double
    If (inputVector(2)) >= (19.7) Then
        If (inputVector(3)) < (1.0647631) Then
            If (inputVector(0)) >= (1.2496378) Then
                If (inputVector(1)) < (2.8695436) Then
                    var52 = 0.0695311055
                Else
                    var52 = -0.0691908598
                End If
            Else
                If (inputVector(1)) < (2.03125) Then
                    var52 = 0.00576589722
                Else
                    var52 = 0.117248736
                End If
            End If
        Else
            If (inputVector(1)) < (3.9790592) Then
                If (inputVector(0)) >= (1.212471) Then
                    var52 = 0.106183626
                Else
                    var52 = -0.0237699412
                End If
            Else
                If (inputVector(0)) >= (1.6128764) Then
                    var52 = 0.0747197941
                Else
                    var52 = -0.0577997938
                End If
            End If
        End If
    Else
        If (inputVector(5)) >= (7.0) Then
            If (inputVector(3)) < (1.5733429) Then
                If (inputVector(0)) < (1.2815185) Then
                    var52 = 0.0984451473
                Else
                    var52 = 0.0468294546
                End If
            Else
                If (inputVector(0)) >= (0.8314189) Then
                    var52 = -0.0704682991
                Else
                    var52 = 0.0374778025
                End If
            End If
        Else
            If (inputVector(4)) < (0.18378378) Then
                If (inputVector(1)) < (1.497807) Then
                    var52 = 0.0935745463
                Else
                    var52 = -0.0616830699
                End If
            Else
                If (inputVector(5)) >= (4.0) Then
                    var52 = 0.101183891
                Else
                    var52 = 0.120238677
                End If
            End If
        End If
    End If
    Dim var53 As Double
    If (inputVector(6)) >= (2.0) Then
        var53 = -0.0747111142
    Else
        If (inputVector(5)) >= (8.0) Then
            If (inputVector(4)) >= (0.4392113) Then
                If (inputVector(6)) >= (1.0) Then
                    var53 = 0.119010828
                Else
                    var53 = -0.0564371459
                End If
            Else
                If (inputVector(0)) >= (1.1012139) Then
                    var53 = 0.0569154285
                Else
                    var53 = -0.0563896559
                End If
            End If
        Else
            If (inputVector(4)) < (0.34813386) Then
                If (inputVector(1)) >= (4.455556) Then
                    var53 = -0.0173647124
                Else
                    var53 = 0.112895623
                End If
            Else
                If (inputVector(1)) >= (14.0) Then
                    var53 = -0.050924778
                Else
                    var53 = 0.12609826
                End If
            End If
        End If
    End If
    Dim var54 As Double
    If (inputVector(6)) >= (2.0) Then
        var54 = -0.0721157044
    Else
        If (inputVector(2)) >= (59.5675) Then
            If (inputVector(0)) >= (1.1638157) Then
                If (inputVector(2)) < (205.79999) Then
                    var54 = -0.0715747178
                Else
                    var54 = 0.0957954228
                End If
            Else
                If (inputVector(1)) >= (7.7222223) Then
                    var54 = -0.0632143989
                Else
                    var54 = 0.0763846561
                End If
            End If
        Else
            If (inputVector(6)) >= (1.0) Then
                If (inputVector(2)) >= (12.805) Then
                    var54 = 0.0840981677
                Else
                    var54 = 0.112343587
                End If
            Else
                If (inputVector(0)) >= (1.2272259) Then
                    var54 = 0.0873702392
                Else
                    var54 = -0.0612342767
                End If
            End If
        End If
    End If
    Dim var55 As Double
    If (inputVector(6)) >= (2.0) Then
        var55 = -0.0695906878
    Else
        If (inputVector(2)) >= (76.65) Then
            If (inputVector(4)) < (0.50305057) Then
                var55 = -0.0699422434
            Else
                If (inputVector(5)) >= (8.0) Then
                    var55 = 0
                Else
                    var55 = 0.108032383
                End If
            End If
        Else
            If (inputVector(5)) >= (9.0) Then
                If (inputVector(1)) >= (1.2665799) Then
                    var55 = 0.0526229329
                Else
                    var55 = -0.0662598312
                End If
            Else
                If (inputVector(1)) >= (9.95) Then
                    var55 = 0.0219532959
                Else
                    var55 = 0.101595476
                End If
            End If
        End If
    End If
    Dim var56 As Double
    If (inputVector(6)) >= (2.0) Then
        var56 = -0.067616269
    Else
        If (inputVector(5)) >= (9.0) Then
            If (inputVector(1)) >= (2.1367102) Then
                If (inputVector(3)) < (0.8654216) Then
                    var56 = -0.0679459721
                Else
                    var56 = 0.0938511267
                End If
            Else
                If (inputVector(2)) < (3.8500001) Then
                    var56 = 0.0671481416
                Else
                    var56 = -0.0754709914
                End If
            End If
        Else
            If (inputVector(1)) >= (9.45) Then
                If (inputVector(3)) >= (1.16564) Then
                    var56 = -0.0441677235
                Else
                    var56 = 0.107781582
                End If
            Else
                If (inputVector(3)) >= (2.5035272) Then
                    var56 = -0.0610497668
                Else
                    var56 = 0.0903308615
                End If
            End If
        End If
    End If
    Dim var57 As Double
    If (inputVector(6)) >= (2.0) Then
        var57 = -0.0665661767
    Else
        If (inputVector(2)) >= (81.43) Then
            If (inputVector(4)) < (0.5147958) Then
                var57 = -0.0661995038
            Else
                If (inputVector(5)) >= (8.0) Then
                    var57 = 0
                Else
                    var57 = 0.0854798034
                End If
            End If
        Else
            If (inputVector(6)) >= (1.0) Then
                If (inputVector(4)) < (0.4257531) Then
                    var57 = 0.065298669
                Else
                    var57 = 0.0884694681
                End If
            Else
                If (inputVector(1)) < (4.3604164) Then
                    var57 = 0.0678884909
                Else
                    var57 = -0.0650203526
                End If
            End If
        End If
    End If
    Dim var58 As Double
    If (inputVector(2)) >= (17.785) Then
        If (inputVector(1)) >= (8.582788) Then
            var58 = -0.0629378408
        Else
            If (inputVector(4)) < (0.67521644) Then
                If (inputVector(3)) < (1.0714104) Then
                    var58 = 0.0277818441
                Else
                    var58 = -0.0258631054
                End If
            Else
                If (inputVector(1)) >= (4.4599566) Then
                    var58 = 0
                Else
                    var58 = 0.0768867657
                End If
            End If
        End If
    Else
        If (inputVector(5)) >= (5.0) Then
            If (inputVector(2)) < (3.6075) Then
                If (inputVector(4)) < (0.4459308) Then
                    var58 = 0.0436984301
                Else
                    var58 = 0.0652374998
                End If
            Else
                If (inputVector(5)) >= (9.0) Then
                    var58 = -0.0356426984
                Else
                    var58 = 0.0361842103
                End If
            End If
        Else
            If (inputVector(4)) < (0.29642856) Then
                If (inputVector(3)) < (1.055188) Then
                    var58 = 0.0521452799
                Else
                    var58 = -0.0834827647
                End If
            Else
                If (inputVector(3)) < (0.62913454) Then
                    var58 = 0.0546775423
                Else
                    var58 = 0.0697503239
                End If
            End If
        End If
    End If
    Dim var59 As Double
    If (inputVector(3)) >= (1.4646456) Then
        If (inputVector(0)) < (1.4014332) Then
            If (inputVector(2)) < (47.95) Then
                If (inputVector(0)) < (0.9301948) Then
                    var59 = 0.0116454968
                Else
                    var59 = -0.0367290266
                End If
            Else
                var59 = -0.0580681264
            End If
        Else
            If (inputVector(2)) < (90.03) Then
                If (inputVector(3)) < (2.7174802) Then
                    var59 = 0.084601514
                Else
                    var59 = 0
                End If
            Else
                If (inputVector(0)) < (1.4383997) Then
                    var59 = 0.0697245374
                Else
                    var59 = -0.0381426625
                End If
            End If
        End If
    Else
        If (inputVector(2)) >= (19.085) Then
            If (inputVector(1)) >= (7.484782) Then
                var59 = -0.061332982
            Else
                If (inputVector(3)) < (1.0684738) Then
                    var59 = 0.0419118814
                Else
                    var59 = -0.00535979215
                End If
            End If
        Else
            If (inputVector(5)) >= (8.0) Then
                If (inputVector(2)) >= (4.94) Then
                    var59 = -0.0400686003
                Else
                    var59 = 0.0395643711
                End If
            Else
                If (inputVector(0)) >= (1.0373291) Then
                    var59 = 0.0524315201
                Else
                    var59 = 0.0652830303
                End If
            End If
        End If
    End If
    Dim var60 As Double
    If (inputVector(6)) >= (2.0) Then
        var60 = -0.0653082505
    Else
        If (inputVector(4)) < (0.51455903) Then
            If (inputVector(2)) >= (59.5675) Then
                If (inputVector(1)) < (2.9188313) Then
                    var60 = 0.0788531601
                Else
                    var60 = -0.0506113581
                End If
            Else
                If (inputVector(2)) < (7.6099997) Then
                    var60 = 0.0734097585
                Else
                    var60 = 0.0474257134
                End If
            End If
        Else
            If (inputVector(6)) >= (1.0) Then
                If (inputVector(0)) < (0.8734144) Then
                    var60 = 0.0529681146
                Else
                    var60 = 0.0773793608
                End If
            Else
                If (inputVector(0)) >= (1.2401961) Then
                    var60 = 0.0206135474
                Else
                    var60 = -0.0658943504
                End If
            End If
        End If
    End If
    Dim var61 As Double
    If (inputVector(3)) >= (1.4646456) Then
        If (inputVector(5)) >= (6.0) Then
            If (inputVector(0)) >= (0.46267855) Then
                If (inputVector(4)) < (1.1182771) Then
                    var61 = -0.0544431321
                Else
                    var61 = 0.0486633144
                End If
            Else
                If (inputVector(4)) < (0.7682292) Then
                    var61 = -0.00462606875
                Else
                    var61 = 0.0719393715
                End If
            End If
        Else
            If (inputVector(1)) < (3.8771935) Then
                If (inputVector(1)) < (1.618624) Then
                    var61 = 0
                Else
                    var61 = 0.0783707947
                End If
            Else
                If (inputVector(0)) >= (1.2409493) Then
                    var61 = 0.0366983674
                Else
                    var61 = -0.0544841662
                End If
            End If
        End If
    Else
        If (inputVector(5)) >= (9.0) Then
            If (inputVector(3)) >= (1.2978884) Then
                var61 = 0.080166325
            Else
                If (inputVector(2)) >= (2.755) Then
                    var61 = -0.0572873838
                Else
                    var61 = 0.044764176
                End If
            End If
        Else
            If (inputVector(5)) >= (5.0) Then
                If (inputVector(4)) < (0.43269667) Then
                    var61 = 0.00981204584
                Else
                    var61 = 0.0470842682
                End If
            Else
                If (inputVector(4)) < (0.30369508) Then
                    var61 = 0.0117818825
                Else
                    var61 = 0.0567569248
                End If
            End If
        End If
    End If
    Dim var62 As Double
    If (inputVector(3)) >= (1.4646456) Then
        If (inputVector(6)) >= (2.0) Then
            var62 = -0.0582101047
        Else
            If (inputVector(4)) < (0.5147958) Then
                If (inputVector(5)) >= (6.0) Then
                    var62 = -0.0487265028
                Else
                    var62 = 0
                End If
            Else
                If (inputVector(5)) >= (8.0) Then
                    var62 = -0.00996261649
                Else
                    var62 = 0.0800552294
                End If
            End If
        End If
    Else
        If (inputVector(6)) >= (2.0) Then
            var62 = -0.0648415908
        Else
            If (inputVector(6)) >= (1.0) Then
                If (inputVector(4)) < (0.45244747) Then
                    var62 = 0.0504851714
                Else
                    var62 = 0.0692740604
                End If
            Else
                If (inputVector(1)) < (4.3604164) Then
                    var62 = 0.0369000137
                Else
                    var62 = -0.06347882
                End If
            End If
        End If
    End If
    Dim var63 As Double
    If (inputVector(5)) >= (5.0) Then
        If (inputVector(3)) >= (1.066744) Then
            If (inputVector(6)) >= (2.0) Then
                var63 = -0.0591838956
            Else
                If (inputVector(4)) < (0.49388674) Then
                    var63 = -0.0218675397
                Else
                    var63 = 0.0675336644
                End If
            End If
        Else
            If (inputVector(6)) >= (2.0) Then
                var63 = -0.0630015135
            Else
                If (inputVector(5)) >= (9.0) Then
                    var63 = -0.0245515909
                Else
                    var63 = 0.0570004992
                End If
            End If
        End If
    Else
        If (inputVector(3)) >= (1.8672726) Then
            var63 = -0.0580131821
        Else
            If (inputVector(6)) >= (2.0) Then
                var63 = -0.0635582209
            Else
                var63 = 0.0678332001
            End If
        End If
    End If
    Dim var64 As Double
    If (inputVector(6)) >= (2.0) Then
        var64 = -0.0610761642
    Else
        If (inputVector(6)) >= (1.0) Then
            If (inputVector(3)) >= (1.6020594) Then
                If (inputVector(2)) < (59.5675) Then
                    var64 = 0.0401062183
                Else
                    var64 = -0.0313738398
                End If
            Else
                If (inputVector(4)) < (0.31968006) Then
                    var64 = 0.0189776737
                Else
                    var64 = 0.0600754879
                End If
            End If
        Else
            If (inputVector(3)) < (0.8420635) Then
                If (inputVector(3)) < (0.6927955) Then
                    var64 = 0
                Else
                    var64 = 0.0449619517
                End If
            Else
                var64 = -0.0616896637
            End If
        End If
    End If
    Dim var65 As Double
    If (inputVector(6)) >= (2.0) Then
        var65 = -0.0601331368
    Else
        If (inputVector(4)) < (0.4257531) Then
            If (inputVector(1)) < (3.408319) Then
                If (inputVector(3)) >= (1.2535715) Then
                    var65 = -0.0143309403
                Else
                    var65 = 0.0615336075
                End If
            Else
                If (inputVector(1)) < (3.7169914) Then
                    var65 = -0.101919532
                Else
                    var65 = 0.0187076032
                End If
            End If
        Else
            If (inputVector(2)) >= (76.65) Then
                If (inputVector(4)) < (0.5147958) Then
                    var65 = -0.0658255443
                Else
                    var65 = 0.0483238585
                End If
            Else
                If (inputVector(6)) >= (1.0) Then
                    var65 = 0.0625605211
                Else
                    var65 = -0.0332701504
                End If
            End If
        End If
    End If
    Dim var66 As Double
    If (inputVector(6)) >= (2.0) Then
        var66 = -0.0592381619
    Else
        If (inputVector(5)) >= (9.0) Then
            If (inputVector(4)) >= (0.5262265) Then
                If (inputVector(1)) < (5.927408) Then
                    var66 = 0.0665244982
                Else
                    var66 = -0.0357267968
                End If
            Else
                var66 = -0.0750118122
            End If
        Else
            If (inputVector(5)) >= (5.0) Then
                If (inputVector(2)) >= (59.5675) Then
                    var66 = 0.00211278233
                Else
                    var66 = 0.0451046079
                End If
            Else
                If (inputVector(2)) >= (74.0) Then
                    var66 = -0.0451279543
                Else
                    var66 = 0.0617600642
                End If
            End If
        End If
    End If
    Dim var67 As Double
    If (inputVector(6)) >= (2.0) Then
        var67 = -0.058298409
    Else
        If (inputVector(2)) >= (7.56) Then
            If (inputVector(0)) >= (1.0608585) Then
                If (inputVector(3)) < (1.4452748) Then
                    var67 = 0.0652646422
                Else
                    var67 = -0.028160451
                End If
            Else
                If (inputVector(3)) < (1.3236156) Then
                    var67 = 0
                Else
                    var67 = 0.0690477267
                End If
            End If
        Else
            If (inputVector(3)) < (1.601379) Then
                If (inputVector(2)) >= (3.125) Then
                    var67 = 0.0504052825
                Else
                    var67 = 0.0604549535
                End If
            Else
                If (inputVector(0)) >= (1.177737) Then
                    var67 = 0
                Else
                    var67 = 0.0524809323
                End If
            End If
        End If
    End If
    Dim var68 As Double
    If (inputVector(6)) >= (2.0) Then
        var68 = -0.0575573817
    Else
        If (inputVector(3)) < (1.0859882) Then
            If (inputVector(5)) >= (9.0) Then
                If (inputVector(1)) >= (2.8263888) Then
                    var68 = 0.0434560068
                Else
                    var68 = -0.0495846458
                End If
            Else
                If (inputVector(1)) >= (3.4305778) Then
                    var68 = 0.0464324467
                Else
                    var68 = 0.0593455099
                End If
            End If
        Else
            If (inputVector(5)) >= (5.0) Then
                If (inputVector(4)) < (0.5098124) Then
                    var68 = -0.0105867367
                Else
                    var68 = 0.0392762534
                End If
            Else
                If (inputVector(4)) < (0.37057292) Then
                    var68 = 0
                Else
                    var68 = 0.057728786
                End If
            End If
        End If
    End If
    Dim var69 As Double
    If (inputVector(2)) >= (38.475) Then
        If (inputVector(5)) >= (8.0) Then
            If (inputVector(0)) < (0.5790398) Then
                If (inputVector(0)) < (0.56630385) Then
                    var69 = 0
                Else
                    var69 = 0.0121201808
                End If
            Else
                If (inputVector(4)) < (0.30476192) Then
                    var69 = -0.00458912505
                Else
                    var69 = -0.0558207929
                End If
            End If
        Else
            If (inputVector(6)) >= (2.0) Then
                var69 = -0.0519641824
            Else
                If (inputVector(4)) < (0.36772242) Then
                    var69 = -0.0639425367
                Else
                    var69 = 0.0283827279
                End If
            End If
        End If
    Else
        If (inputVector(5)) >= (9.0) Then
            If (inputVector(2)) < (33.7) Then
                If (inputVector(2)) < (3.63) Then
                    var69 = 0.0305417012
                Else
                    var69 = -0.0695354119
                End If
            Else
                If (inputVector(4)) < (0.8691454) Then
                    var69 = 0.0582467392
                Else
                    var69 = 0
                End If
            End If
        Else
            If (inputVector(6)) >= (2.0) Then
                var69 = -0.057401903
            Else
                If (inputVector(4)) < (0.31389964) Then
                    var69 = 0.00214076112
                Else
                    var69 = 0.0526479073
                End If
            End If
        End If
    End If
    Dim var70 As Double
    If (inputVector(2)) >= (58.9925) Then
        If (inputVector(1)) < (2.8895605) Then
            If (inputVector(3)) >= (1.3818071) Then
                var70 = 0
            Else
                If (inputVector(3)) < (0.9696641) Then
                    var70 = 0
                Else
                    var70 = 0.0634682104
                End If
            End If
        Else
            If (inputVector(4)) < (0.5147958) Then
                If (inputVector(0)) < (0.40824622) Then
                    var70 = 0.0363055691
                Else
                    var70 = -0.0579062961
                End If
            Else
                If (inputVector(0)) < (0.8605833) Then
                    var70 = -0.0486072265
                Else
                    var70 = 0.00750196213
                End If
            End If
        End If
    Else
        If (inputVector(6)) >= (2.0) Then
            var70 = -0.0566444993
        Else
            If (inputVector(4)) < (0.42660874) Then
                If (inputVector(3)) < (1.1107304) Then
                    var70 = 0.0375526063
                Else
                    var70 = -0.034479972
                End If
            Else
                If (inputVector(1)) >= (6.2517624) Then
                    var70 = 0.0296200272
                Else
                    var70 = 0.0528170243
                End If
            End If
        End If
    End If
    Dim var71 As Double
    If (inputVector(3)) >= (1.1098077) Then
        If (inputVector(6)) >= (2.0) Then
            var71 = -0.0535752662
        Else
            If (inputVector(2)) >= (8.085) Then
                If (inputVector(4)) < (0.3202753) Then
                    var71 = -0.0867895633
                Else
                    var71 = 0.00633874629
                End If
            Else
                If (inputVector(4)) < (0.38229167) Then
                    var71 = 0
                Else
                    var71 = 0.0566104352
                End If
            End If
        End If
